{"_meta": {"model": "RandomForest", "source": "/home/ishu/gesture-grammar-app/services/grammar_engine/models/gesture_rf_EXP_001.joblib", "num_trees": 100, "num_classes": 19, "gesture_ids": ["subject_i", "subject_you", "subject_he", "subject_she", "subject_we", "subject_they", "verb_want", "verb_eat", "verb_see", "verb_grab", "verb_drink", "verb_go", "verb_stop", "object_food", "object_water", "object_book", "object_apple", "object_ball", "object_house"], "gesture_labels": {"subject_i": "I", "subject_you": "You", "subject_he": "He", "subject_she": "She", "subject_we": "We", "subject_they": "They", "verb_want": "Want", "verb_eat": "Eat", "verb_see": "See", "verb_grab": "Grab", "verb_drink": "Drink", "verb_go": "Go", "verb_stop": "Stop", "object_food": "Food", "object_water": "Water", "object_book": "Book", "object_apple": "Apple", "object_ball": "Ball", "object_house": "House"}, "id_to_idx": {"subject_i": 0, "subject_you": 1, "subject_he": 2, "subject_she": 3, "subject_we": 4, "subject_they": 5, "verb_want": 6, "verb_eat": 7, "verb_see": 8, "verb_grab": 9, "verb_drink": 10, "verb_go": 11, "verb_stop": 12, "object_food": 13, "object_water": 14, "object_book": 15, "object_apple": 16, "object_ball": 17, "object_house": 18}, "idx_to_id": {"0": "subject_i", "1": "subject_you", "2": "subject_he", "3": "subject_she", "4": "subject_we", "5": "subject_they", "6": "verb_want", "7": "verb_eat", "8": "verb_see", "9": "verb_grab", "10": "verb_drink", "11": "verb_go", "12": "verb_stop", "13": "object_food", "14": "object_water", "15": "object_book", "16": "object_apple", "17": "object_ball", "18": "object_house"}}, "trees": [{"feature": [72, 64, 76, -2, -2, 24, 15, 60, -2, -2, -2, 38, 63, 44, 64, 3, 7, -2, -2, -2, 41, -2, 79, -2, -2, 69, -2, 23, 46, 35, 67, 65, -2, -2, -2, 70, 75, -2, -2, -2, 13, 3, 64, -2, -2, 64, 33, -2, -2, 66, -2, -2, 25, 23, 79, -2, 68, -2, -2, -2, 80, 80, 60, -2, 85, -2, -2, 28, -2, -2, 15, 75, 64, 85, -2, -2, -2, 27, -2, -2, -2, 74, -2, -2, 70, 81, 25, 81, 35, -2, -2, -2, 49, 23, -2, -2, -2, 32, 81, -2, 18, -2, -2, 35, -2, -2, -2, -2, -2], "threshold": [0.3667284846305847, 0.1948796808719635, 2.4769797325134277, -2.0, -2.0, -0.26851947605609894, -0.02488953061401844, -0.33749520033597946, -2.0, -2.0, -2.0, 0.82949498295784, 0.654572993516922, -0.2453613579273224, 0.4786704033613205, 0.2310185730457306, 0.3002869784832001, -2.0, -2.0, -2.0, -0.141248919069767, -2.0, 2.7576481103897095, -2.0, -2.0, 0.24054816365242004, -2.0, 0.43652115762233734, 0.6643891930580139, 0.0013657882809638977, 0.5872348248958588, 0.34954744577407837, -2.0, -2.0, -2.0, 0.2547054961323738, 2.3950135707855225, -2.0, -2.0, -2.0, 0.49659910798072815, 0.185009203851223, 0.6535038650035858, -2.0, -2.0, 0.4995504915714264, 0.07276748772710562, -2.0, -2.0, 0.6593927145004272, -2.0, -2.0, 0.8220941424369812, 0.3355824053287506, 0.6943974196910858, -2.0, 0.19268296658992767, -2.0, -2.0, -2.0, 1.6069466471672058, 0.6895031929016113, -0.2091374397277832, -2.0, 0.08841834962368011, -2.0, -2.0, 0.4732009917497635, -2.0, -2.0, 0.23091509193181992, 2.8950862884521484, 0.507410928606987, -0.06739412806928158, -2.0, -2.0, -2.0, 0.008404778316617012, -2.0, -2.0, -2.0, 2.578276515007019, -2.0, -2.0, 0.4634622782468796, 1.2899301052093506, 0.5548163056373596, 0.61089888215065, -0.13190844655036926, -2.0, -2.0, -2.0, 0.8715361654758453, -0.04581858217716217, -2.0, -2.0, -2.0, -0.10556285828351974, 1.7751129269599915, -2.0, -0.100218515843153, -2.0, -2.0, -0.1747141070663929, -2.0, -2.0, -2.0, -2.0, -2.0], "children_left": [1, 2, 3, -1, -1, 6, 7, 8, -1, -1, -1, 12, 13, 14, 15, 16, 17, -1, -1, -1, 21, -1, 23, -1, -1, 26, -1, 28, 29, 30, 31, 32, -1, -1, -1, 36, 37, -1, -1, -1, 41, 42, 43, -1, -1, 46, 47, -1, -1, 50, -1, -1, 53, 54, 55, -1, 57, -1, -1, -1, 61, 62, 63, -1, 65, -1, -1, 68, -1, -1, 71, 72, 73, 74, -1, -1, -1, 78, -1, -1, -1, 82, -1, -1, 85, 86, 87, 88, 89, -1, -1, -1, 93, 94, -1, -1, -1, 98, 99, -1, 101, -1, -1, 104, -1, -1, -1, -1, -1], "children_right": [108, 5, 4, -1, -1, 11, 10, 9, -1, -1, -1, 107, 84, 25, 20, 19, 18, -1, -1, -1, 22, -1, 24, -1, -1, 27, -1, 81, 40, 35, 34, 33, -1, -1, -1, 39, 38, -1, -1, -1, 52, 45, 44, -1, -1, 49, 48, -1, -1, 51, -1, -1, 60, 59, 56, -1, 58, -1, -1, -1, 70, 67, 64, -1, 66, -1, -1, 69, -1, -1, 80, 77, 76, 75, -1, -1, -1, 79, -1, -1, -1, 83, -1, -1, 106, 97, 92, 91, 90, -1, -1, -1, 96, 95, -1, -1, -1, 103, 100, -1, 102, -1, -1, 105, -1, -1, -1, -1, -1], "value": [[0.04786450662739323, 0.046637211585665195, 0.04737358861070201, 0.05694648993618066, 0.054982817869415807, 0.052037309769268535, 0.05351006381934217, 0.050564555719194895, 0.052037309769268535, 0.05547373588610702, 0.050564555719194895, 0.05351006381934217, 0.047619047619047616, 0.052528227785959745, 0.054982817869415807, 0.04540991654393716, 0.050073637702503684, 0.0702012763868434, 0.05768286696121748], [0.05064935064935065, 0.04935064935064935, 0.05012987012987013, 0.06025974025974026, 0.05818181818181818, 0.05506493506493507, 0.056623376623376624, 0.05350649350649351, 0.05506493506493507, 0.0587012987012987, 0.05350649350649351, 0.056623376623376624, 0.05038961038961039, 0.055584415584415584, 0.0, 0.048051948051948054, 0.052987012987012985, 0.07428571428571429, 0.06103896103896104], [0.0, 0.0, 0.0, 0.0, 0.0, 0.0, 0.0, 0.4671201814058957, 0.0, 0.0, 0.0, 0.0, 0.0, 0.0, 0.0, 0.0, 0.0, 0.0, 0.5328798185941043], [0.0, 0.0, 0.0, 0.0, 0.0, 0.0, 0.0, 1.0, 0.0, 0.0, 0.0, 0.0, 0.0, 0.0, 0.0, 0.0, 0.0, 0.0, 0.0], [0.0, 0.0, 0.0, 0.0, 0.0, 0.0, 0.0, 0.0, 0.0, 0.0, 0.0, 0.0, 0.0, 0.0, 0.0, 0.0, 0.0, 0.0, 1.0], [0.05720152537400997, 0.05573481959518921, 0.056614843062481664, 0.06805514813728367, 0.06570841889117043, 0.062188325022000585, 0.06394837195658551, 0.0, 0.062188325022000585, 0.06629510120269874, 0.06042827808741567, 0.06394837195658551, 0.05690818421824582, 0.06277500733352889, 0.0, 0.05426811381636844, 0.05984159577588736, 0.08389557054854796, 0.0], [0.0, 0.0, 0.0, 0.5110132158590308, 0.0, 0.0, 0.0, 0.0, 0.0, 0.0, 0.45154185022026433, 0.0, 0.0, 0.0, 0.0, 0.0, 0.0, 0.037444933920704845, 0.0], [0.0, 0.0, 0.0, 0.0, 0.0, 0.0, 0.0, 0.0, 0.0, 0.0, 0.9234234234234234, 0.0, 0.0, 0.0, 0.0, 0.0, 0.0, 0.07657657657657657, 0.0], [0.0, 0.0, 0.0, 0.0, 0.0, 0.0, 0.0, 0.0, 0.0, 0.0, 1.0, 0.0, 0.0, 0.0, 0.0, 0.0, 0.0, 0.0, 0.0], [0.0, 0.0, 0.0, 0.0, 0.0, 0.0, 0.0, 0.0, 0.0, 0.0, 0.0, 0.0, 0.0, 0.0, 0.0, 0.0, 0.0, 1.0, 0.0], [0.0, 0.0, 0.0, 1.0, 0.0, 0.0, 0.0, 0.0, 0.0, 0.0, 0.0, 0.0, 0.0, 0.0, 0.0, 0.0, 0.0, 0.0, 0.0], [0.06598984771573604, 0.06429780033840947, 0.06531302876480541, 0.0, 0.07580372250423012, 0.07174280879864636, 0.07377326565143824, 0.0, 0.07174280879864636, 0.07648054145516074, 0.00033840947546531303, 0.07377326565143824, 0.06565143824027073, 0.07241962774957698, 0.0, 0.06260575296108291, 0.06903553299492386, 0.09103214890016921, 0.0], [0.07114191900766144, 0.06931776723823423, 0.07041225829989055, 0.0, 0.0817219992703393, 0.07734403502371397, 0.07953301714702664, 0.0, 0.07734403502371397, 0.08245165997811017, 0.00036483035388544326, 0.07953301714702664, 0.070777088653776, 0.0, 0.0, 0.067493615468807, 0.07442539219263043, 0.09813936519518424, 0.0], [0.0, 0.0005793742757821553, 0.11181923522595597, 0.0, 0.0, 0.0, 0.12630359212050984, 0.0, 0.12282734646581692, 0.13093858632676708, 0.0, 0.12630359212050984, 0.0, 0.0, 0.0, 0.10718424101969873, 0.11819235225955968, 0.15585168018539977, 0.0], [0.0, 0.004464285714285714, 0.008928571428571428, 0.0, 0.0, 0.0, 0.90625, 0.0, 0.0, 0.0625, 0.0, 0.0, 0.0, 0.0, 0.0, 0.0, 0.0, 0.017857142857142856, 0.0], [0.0, 0.06666666666666667, 0.13333333333333333, 0.0, 0.0, 0.0, 0.0, 0.0, 0.0, 0.8, 0.0, 0.0, 0.0, 0.0, 0.0, 0.0, 0.0, 0.0, 0.0], [0.0, 0.3333333333333333, 0.6666666666666666, 0.0, 0.0, 0.0, 0.0, 0.0, 0.0, 0.0, 0.0, 0.0, 0.0, 0.0, 0.0, 0.0, 0.0, 0.0, 0.0], [0.0, 1.0, 0.0, 0.0, 0.0, 0.0, 0.0, 0.0, 0.0, 0.0, 0.0, 0.0, 0.0, 0.0, 0.0, 0.0, 0.0, 0.0, 0.0], [0.0, 0.0, 1.0, 0.0, 0.0, 0.0, 0.0, 0.0, 0.0, 0.0, 0.0, 0.0, 0.0, 0.0, 0.0, 0.0, 0.0, 0.0, 0.0], [0.0, 0.0, 0.0, 0.0, 0.0, 0.0, 0.0, 0.0, 0.0, 1.0, 0.0, 0.0, 0.0, 0.0, 0.0, 0.0, 0.0, 0.0, 0.0], [0.0, 0.0, 0.0, 0.0, 0.0, 0.0, 0.9712918660287081, 0.0, 0.0, 0.009569377990430622, 0.0, 0.0, 0.0, 0.0, 0.0, 0.0, 0.0, 0.019138755980861243, 0.0], [0.0, 0.0, 0.0, 0.0, 0.0, 0.0, 1.0, 0.0, 0.0, 0.0, 0.0, 0.0, 0.0, 0.0, 0.0, 0.0, 0.0, 0.0, 0.0], [0.0, 0.0, 0.0, 0.0, 0.0, 0.0, 0.0, 0.0, 0.0, 0.3333333333333333, 0.0, 0.0, 0.0, 0.0, 0.0, 0.0, 0.0, 0.6666666666666666, 0.0], [0.0, 0.0, 0.0, 0.0, 0.0, 0.0, 0.0, 0.0, 0.0, 0.0, 0.0, 0.0, 0.0, 0.0, 0.0, 0.0, 0.0, 1.0, 0.0], [0.0, 0.0, 0.0, 0.0, 0.0, 0.0, 0.0, 0.0, 0.0, 1.0, 0.0, 0.0, 0.0, 0.0, 0.0, 0.0, 0.0, 0.0, 0.0], [0.0, 0.0, 0.12716378162450068, 0.0, 0.0, 0.0, 0.009986684420772303, 0.0, 0.1411451398135819, 0.1411451398135819, 0.0, 0.14513981358189082, 0.0, 0.0, 0.0, 0.12316910785619174, 0.13581890812250333, 0.17643142476697737, 0.0], [0.0, 0.0, 0.0, 0.0, 0.0, 0.0, 0.0, 0.0, 0.0, 1.0, 0.0, 0.0, 0.0, 0.0, 0.0, 0.0, 0.0, 0.0, 0.0], [0.0, 0.0, 0.14783281733746131, 0.0, 0.0, 0.0, 0.011609907120743035, 0.0, 0.16408668730650156, 0.0015479876160990713, 0.0, 0.16873065015479877, 0.0, 0.0, 0.0, 0.14318885448916407, 0.15789473684210525, 0.20510835913312694, 0.0], [0.0, 0.0, 0.17717996289424862, 0.0, 0.0, 0.0, 0.013914656771799629, 0.0, 0.19202226345083487, 0.0018552875695732839, 0.0, 0.008348794063079777, 0.0, 0.0, 0.0, 0.17161410018552875, 0.18923933209647495, 0.24582560296846012, 0.0], [0.0, 0.0, 0.04421768707482993, 0.0, 0.0, 0.0, 0.0, 0.0, 0.6972789115646258, 0.0, 0.0, 0.0, 0.0, 0.0, 0.0, 0.0, 0.017006802721088437, 0.24149659863945577, 0.0], [0.0, 0.0, 0.11764705882352941, 0.0, 0.0, 0.0, 0.0, 0.0, 0.0, 0.0, 0.0, 0.0, 0.0, 0.0, 0.0, 0.0, 0.047058823529411764, 0.8352941176470589, 0.0], [0.0, 0.0, 0.0, 0.0, 0.0, 0.0, 0.0, 0.0, 0.0, 0.0, 0.0, 0.0, 0.0, 0.0, 0.0, 0.0, 0.05333333333333334, 0.9466666666666667, 0.0], [0.0, 0.0, 0.0, 0.0, 0.0, 0.0, 0.0, 0.0, 0.0, 0.0, 0.0, 0.0, 0.0, 0.0, 0.0, 0.0, 0.0, 1.0, 0.0], [0.0, 0.0, 0.0, 0.0, 0.0, 0.0, 0.0, 0.0, 0.0, 0.0, 0.0, 0.0, 0.0, 0.0, 0.0, 0.0, 1.0, 0.0, 0.0], [0.0, 0.0, 1.0, 0.0, 0.0, 0.0, 0.0, 0.0, 0.0, 0.0, 0.0, 0.0, 0.0, 0.0, 0.0, 0.0, 0.0, 0.0, 0.0], [0.0, 0.0, 0.014354066985645933, 0.0, 0.0, 0.0, 0.0, 0.0, 0.9808612440191388, 0.0, 0.0, 0.0, 0.0, 0.0, 0.0, 0.0, 0.004784688995215311, 0.0, 0.0], [0.0, 0.0, 0.75, 0.0, 0.0, 0.0, 0.0, 0.0, 0.0, 0.0, 0.0, 0.0, 0.0, 0.0, 0.0, 0.0, 0.25, 0.0, 0.0], [0.0, 0.0, 1.0, 0.0, 0.0, 0.0, 0.0, 0.0, 0.0, 0.0, 0.0, 0.0, 0.0, 0.0, 0.0, 0.0, 0.0, 0.0, 0.0], [0.0, 0.0, 0.0, 0.0, 0.0, 0.0, 0.0, 0.0, 0.0, 0.0, 0.0, 0.0, 0.0, 0.0, 0.0, 0.0, 1.0, 0.0, 0.0], [0.0, 0.0, 0.0, 0.0, 0.0, 0.0, 0.0, 0.0, 1.0, 0.0, 0.0, 0.0, 0.0, 0.0, 0.0, 0.0, 0.0, 0.0, 0.0], [0.0, 0.0, 0.22704081632653061, 0.0, 0.0, 0.0, 0.01913265306122449, 0.0, 0.002551020408163265, 0.002551020408163265, 0.0, 0.011479591836734694, 0.0, 0.0, 0.0, 0.23596938775510204, 0.2538265306122449, 0.24744897959183673, 0.0], [0.0, 0.0, 0.03982300884955752, 0.0, 0.0, 0.0, 0.004424778761061947, 0.0, 0.0, 0.0, 0.0, 0.008849557522123894, 0.0, 0.0, 0.0, 0.7876106194690266, 0.0, 0.1592920353982301, 0.0], [0.0, 0.0, 0.0, 0.0, 0.0, 0.0, 0.0, 0.0, 0.0, 0.0, 0.0, 0.0, 0.0, 0.0, 0.0, 0.994413407821229, 0.0, 0.00558659217877095, 0.0], [0.0, 0.0, 0.0, 0.0, 0.0, 0.0, 0.0, 0.0, 0.0, 0.0, 0.0, 0.0, 0.0, 0.0, 0.0, 1.0, 0.0, 0.0, 0.0], [0.0, 0.0, 0.0, 0.0, 0.0, 0.0, 0.0, 0.0, 0.0, 0.0, 0.0, 0.0, 0.0, 0.0, 0.0, 0.0, 0.0, 1.0, 0.0], [0.0, 0.0, 0.19148936170212766, 0.0, 0.0, 0.0, 0.02127659574468085, 0.0, 0.0, 0.0, 0.0, 0.0425531914893617, 0.0, 0.0, 0.0, 0.0, 0.0, 0.7446808510638298, 0.0], [0.0, 0.0, 0.8181818181818182, 0.0, 0.0, 0.0, 0.0, 0.0, 0.0, 0.0, 0.0, 0.18181818181818182, 0.0, 0.0, 0.0, 0.0, 0.0, 0.0, 0.0], [0.0, 0.0, 0.0, 0.0, 0.0, 0.0, 0.0, 0.0, 0.0, 0.0, 0.0, 1.0, 0.0, 0.0, 0.0, 0.0, 0.0, 0.0, 0.0], [0.0, 0.0, 1.0, 0.0, 0.0, 0.0, 0.0, 0.0, 0.0, 0.0, 0.0, 0.0, 0.0, 0.0, 0.0, 0.0, 0.0, 0.0, 0.0], [0.0, 0.0, 0.0, 0.0, 0.0, 0.0, 0.027777777777777776, 0.0, 0.0, 0.0, 0.0, 0.0, 0.0, 0.0, 0.0, 0.0, 0.0, 0.9722222222222222, 0.0], [0.0, 0.0, 0.0, 0.0, 0.0, 0.0, 1.0, 0.0, 0.0, 0.0, 0.0, 0.0, 0.0, 0.0, 0.0, 0.0, 0.0, 0.0, 0.0], [0.0, 0.0, 0.0, 0.0, 0.0, 0.0, 0.0, 0.0, 0.0, 0.0, 0.0, 0.0, 0.0, 0.0, 0.0, 0.0, 0.0, 1.0, 0.0], [0.0, 0.0, 0.30286738351254483, 0.0, 0.0, 0.0, 0.025089605734767026, 0.0, 0.0035842293906810036, 0.0035842293906810036, 0.0, 0.012544802867383513, 0.0, 0.0, 0.0, 0.012544802867383513, 0.35663082437275984, 0.2831541218637993, 0.0], [0.0, 0.0, 0.9378531073446328, 0.0, 0.0, 0.0, 0.0, 0.0, 0.0, 0.0, 0.0, 0.02824858757062147, 0.0, 0.0, 0.0, 0.0, 0.022598870056497175, 0.011299435028248588, 0.0], [0.0, 0.0, 0.9651162790697675, 0.0, 0.0, 0.0, 0.0, 0.0, 0.0, 0.0, 0.0, 0.0, 0.0, 0.0, 0.0, 0.0, 0.023255813953488372, 0.011627906976744186, 0.0], [0.0, 0.0, 1.0, 0.0, 0.0, 0.0, 0.0, 0.0, 0.0, 0.0, 0.0, 0.0, 0.0, 0.0, 0.0, 0.0, 0.0, 0.0, 0.0], [0.0, 0.0, 0.0, 0.0, 0.0, 0.0, 0.0, 0.0, 0.0, 0.0, 0.0, 0.0, 0.0, 0.0, 0.0, 0.0, 0.6666666666666666, 0.3333333333333333, 0.0], [0.0, 0.0, 0.0, 0.0, 0.0, 0.0, 0.0, 0.0, 0.0, 0.0, 0.0, 0.0, 0.0, 0.0, 0.0, 0.0, 0.0, 1.0, 0.0], [0.0, 0.0, 0.0, 0.0, 0.0, 0.0, 0.0, 0.0, 0.0, 0.0, 0.0, 0.0, 0.0, 0.0, 0.0, 0.0, 1.0, 0.0, 0.0], [0.0, 0.0, 0.0, 0.0, 0.0, 0.0, 0.0, 0.0, 0.0, 0.0, 0.0, 1.0, 0.0, 0.0, 0.0, 0.0, 0.0, 0.0, 0.0], [0.0, 0.0, 0.007874015748031496, 0.0, 0.0, 0.0, 0.03674540682414698, 0.0, 0.005249343832020997, 0.005249343832020997, 0.0, 0.005249343832020997, 0.0, 0.0, 0.0, 0.01837270341207349, 0.5118110236220472, 0.4094488188976378, 0.0], [0.0, 0.0, 0.014634146341463415, 0.0, 0.0, 0.0, 0.0, 0.0, 0.00975609756097561, 0.0, 0.0, 0.00975609756097561, 0.0, 0.0, 0.0, 0.01951219512195122, 0.9463414634146341, 0.0, 0.0], [0.0, 0.0, 0.42857142857142855, 0.0, 0.0, 0.0, 0.0, 0.0, 0.2857142857142857, 0.0, 0.0, 0.2857142857142857, 0.0, 0.0, 0.0, 0.0, 0.0, 0.0, 0.0], [0.0, 0.0, 1.0, 0.0, 0.0, 0.0, 0.0, 0.0, 0.0, 0.0, 0.0, 0.0, 0.0, 0.0, 0.0, 0.0, 0.0, 0.0, 0.0], [0.0, 0.0, 0.0, 0.0, 0.0, 0.0, 0.0, 0.0, 0.5, 0.0, 0.0, 0.5, 0.0, 0.0, 0.0, 0.0, 0.0, 0.0, 0.0], [0.0, 0.0, 0.0, 0.0, 0.0, 0.0, 0.0, 0.0, 1.0, 0.0, 0.0, 0.0, 0.0, 0.0, 0.0, 0.0, 0.0, 0.0, 0.0], [0.0, 0.0, 0.0, 0.0, 0.0, 0.0, 0.0, 0.0, 0.0, 0.0, 0.0, 1.0, 0.0, 0.0, 0.0, 0.0, 0.0, 0.0, 0.0], [0.0, 0.0, 0.0, 0.0, 0.0, 0.0, 0.0, 0.0, 0.0, 0.0, 0.0, 0.0, 0.0, 0.0, 0.0, 0.020202020202020204, 0.9797979797979798, 0.0, 0.0], [0.0, 0.0, 0.0, 0.0, 0.0, 0.0, 0.0, 0.0, 0.0, 0.0, 0.0, 0.0, 0.0, 0.0, 0.0, 1.0, 0.0, 0.0, 0.0], [0.0, 0.0, 0.0, 0.0, 0.0, 0.0, 0.0, 0.0, 0.0, 0.0, 0.0, 0.0, 0.0, 0.0, 0.0, 0.0, 1.0, 0.0, 0.0], [0.0, 0.0, 0.0, 0.0, 0.0, 0.0, 0.07954545454545454, 0.0, 0.0, 0.011363636363636364, 0.0, 0.0, 0.0, 0.0, 0.0, 0.017045454545454544, 0.005681818181818182, 0.8863636363636364, 0.0], [0.0, 0.0, 0.0, 0.0, 0.0, 0.0, 0.05813953488372093, 0.0, 0.0, 0.011627906976744186, 0.0, 0.0, 0.0, 0.0, 0.0, 0.01744186046511628, 0.005813953488372093, 0.9069767441860465, 0.0], [0.0, 0.0, 0.0, 0.0, 0.0, 0.0, 0.0, 0.0, 0.0, 0.012578616352201259, 0.0, 0.0, 0.0, 0.0, 0.0, 0.0, 0.006289308176100629, 0.9811320754716981, 0.0], [0.0, 0.0, 0.0, 0.0, 0.0, 0.0, 0.0, 0.0, 0.0, 0.6666666666666666, 0.0, 0.0, 0.0, 0.0, 0.0, 0.0, 0.3333333333333333, 0.0, 0.0], [0.0, 0.0, 0.0, 0.0, 0.0, 0.0, 0.0, 0.0, 0.0, 0.0, 0.0, 0.0, 0.0, 0.0, 0.0, 0.0, 1.0, 0.0, 0.0], [0.0, 0.0, 0.0, 0.0, 0.0, 0.0, 0.0, 0.0, 0.0, 1.0, 0.0, 0.0, 0.0, 0.0, 0.0, 0.0, 0.0, 0.0, 0.0], [0.0, 0.0, 0.0, 0.0, 0.0, 0.0, 0.0, 0.0, 0.0, 0.0, 0.0, 0.0, 0.0, 0.0, 0.0, 0.0, 0.0, 1.0, 0.0], [0.0, 0.0, 0.0, 0.0, 0.0, 0.0, 0.7692307692307693, 0.0, 0.0, 0.0, 0.0, 0.0, 0.0, 0.0, 0.0, 0.23076923076923078, 0.0, 0.0, 0.0], [0.0, 0.0, 0.0, 0.0, 0.0, 0.0, 1.0, 0.0, 0.0, 0.0, 0.0, 0.0, 0.0, 0.0, 0.0, 0.0, 0.0, 0.0, 0.0], [0.0, 0.0, 0.0, 0.0, 0.0, 0.0, 0.0, 0.0, 0.0, 0.0, 0.0, 0.0, 0.0, 0.0, 0.0, 1.0, 0.0, 0.0, 0.0], [0.0, 0.0, 0.0, 0.0, 0.0, 0.0, 1.0, 0.0, 0.0, 0.0, 0.0, 0.0, 0.0, 0.0, 0.0, 0.0, 0.0, 0.0, 0.0], [0.0, 0.0, 0.0, 0.0, 0.0, 0.0, 0.0, 0.0, 0.02336448598130841, 0.0, 0.0, 0.9766355140186916, 0.0, 0.0, 0.0, 0.0, 0.0, 0.0, 0.0], [0.0, 0.0, 0.0, 0.0, 0.0, 0.0, 0.0, 0.0, 0.0, 0.0, 0.0, 1.0, 0.0, 0.0, 0.0, 0.0, 0.0, 0.0, 0.0], [0.0, 0.0, 0.0, 0.0, 0.0, 0.0, 0.0, 0.0, 1.0, 0.0, 0.0, 0.0, 0.0, 0.0, 0.0, 0.0, 0.0, 0.0, 0.0], [0.1921182266009852, 0.18620689655172415, 0.0, 0.0, 0.2206896551724138, 0.20886699507389161, 0.0, 0.0, 0.0, 0.0, 0.0009852216748768472, 0.0, 0.19113300492610838, 0.0, 0.0, 0.0, 0.0, 0.0, 0.0], [0.24652338811630847, 0.23893805309734514, 0.0, 0.0, 0.0, 0.26801517067003794, 0.0, 0.0, 0.0, 0.0, 0.0012642225031605564, 0.0, 0.24525916561314792, 0.0, 0.0, 0.0, 0.0, 0.0, 0.0], [0.5078125, 0.4921875, 0.0, 0.0, 0.0, 0.0, 0.0, 0.0, 0.0, 0.0, 0.0, 0.0, 0.0, 0.0, 0.0, 0.0, 0.0, 0.0, 0.0], [0.927536231884058, 0.07246376811594203, 0.0, 0.0, 0.0, 0.0, 0.0, 0.0, 0.0, 0.0, 0.0, 0.0, 0.0, 0.0, 0.0, 0.0, 0.0, 0.0, 0.0], [0.0625, 0.9375, 0.0, 0.0, 0.0, 0.0, 0.0, 0.0, 0.0, 0.0, 0.0, 0.0, 0.0, 0.0, 0.0, 0.0, 0.0, 0.0, 0.0], [1.0, 0.0, 0.0, 0.0, 0.0, 0.0, 0.0, 0.0, 0.0, 0.0, 0.0, 0.0, 0.0, 0.0, 0.0, 0.0, 0.0, 0.0, 0.0], [0.0, 1.0, 0.0, 0.0, 0.0, 0.0, 0.0, 0.0, 0.0, 0.0, 0.0, 0.0, 0.0, 0.0, 0.0, 0.0, 0.0, 0.0, 0.0], [1.0, 0.0, 0.0, 0.0, 0.0, 0.0, 0.0, 0.0, 0.0, 0.0, 0.0, 0.0, 0.0, 0.0, 0.0, 0.0, 0.0, 0.0, 0.0], [0.01694915254237288, 0.9830508474576272, 0.0, 0.0, 0.0, 0.0, 0.0, 0.0, 0.0, 0.0, 0.0, 0.0, 0.0, 0.0, 0.0, 0.0, 0.0, 0.0, 0.0], [0.005714285714285714, 0.9942857142857143, 0.0, 0.0, 0.0, 0.0, 0.0, 0.0, 0.0, 0.0, 0.0, 0.0, 0.0, 0.0, 0.0, 0.0, 0.0, 0.0, 0.0], [1.0, 0.0, 0.0, 0.0, 0.0, 0.0, 0.0, 0.0, 0.0, 0.0, 0.0, 0.0, 0.0, 0.0, 0.0, 0.0, 0.0, 0.0, 0.0], [0.0, 1.0, 0.0, 0.0, 0.0, 0.0, 0.0, 0.0, 0.0, 0.0, 0.0, 0.0, 0.0, 0.0, 0.0, 0.0, 0.0, 0.0, 0.0], [1.0, 0.0, 0.0, 0.0, 0.0, 0.0, 0.0, 0.0, 0.0, 0.0, 0.0, 0.0, 0.0, 0.0, 0.0, 0.0, 0.0, 0.0, 0.0], [0.0, 0.0, 0.0, 0.0, 0.0, 0.5208845208845209, 0.0, 0.0, 0.0, 0.0, 0.002457002457002457, 0.0, 0.47665847665847666, 0.0, 0.0, 0.0, 0.0, 0.0, 0.0], [0.0, 0.0, 0.0, 0.0, 0.0, 0.005376344086021506, 0.0, 0.0, 0.0, 0.0, 0.005376344086021506, 0.0, 0.989247311827957, 0.0, 0.0, 0.0, 0.0, 0.0, 0.0], [0.0, 0.0, 0.0, 0.0, 0.0, 1.0, 0.0, 0.0, 0.0, 0.0, 0.0, 0.0, 0.0, 0.0, 0.0, 0.0, 0.0, 0.0, 0.0], [0.0, 0.0, 0.0, 0.0, 0.0, 0.0, 0.0, 0.0, 0.0, 0.0, 0.005405405405405406, 0.0, 0.9945945945945946, 0.0, 0.0, 0.0, 0.0, 0.0, 0.0], [0.0, 0.0, 0.0, 0.0, 0.0, 0.0, 0.0, 0.0, 0.0, 0.0, 1.0, 0.0, 0.0, 0.0, 0.0, 0.0, 0.0, 0.0, 0.0], [0.0, 0.0, 0.0, 0.0, 0.0, 0.0, 0.0, 0.0, 0.0, 0.0, 0.0, 0.0, 1.0, 0.0, 0.0, 0.0, 0.0, 0.0, 0.0], [0.0, 0.0, 0.0, 0.0, 0.0, 0.9547511312217195, 0.0, 0.0, 0.0, 0.0, 0.0, 0.0, 0.04524886877828054, 0.0, 0.0, 0.0, 0.0, 0.0, 0.0], [0.0, 0.0, 0.0, 0.0, 0.0, 0.0, 0.0, 0.0, 0.0, 0.0, 0.0, 0.0, 1.0, 0.0, 0.0, 0.0, 0.0, 0.0, 0.0], [0.0, 0.0, 0.0, 0.0, 0.0, 1.0, 0.0, 0.0, 0.0, 0.0, 0.0, 0.0, 0.0, 0.0, 0.0, 0.0, 0.0, 0.0, 0.0], [0.0, 0.0, 0.0, 0.0, 1.0, 0.0, 0.0, 0.0, 0.0, 0.0, 0.0, 0.0, 0.0, 0.0, 0.0, 0.0, 0.0, 0.0, 0.0], [0.0, 0.0, 0.0, 0.0, 0.0, 0.0, 0.0, 0.0, 0.0, 0.0, 0.0, 0.0, 0.0, 1.0, 0.0, 0.0, 0.0, 0.0, 0.0], [0.0, 0.0, 0.0, 0.0, 0.0, 0.0, 0.0, 0.0, 0.0, 0.0, 0.0, 0.0, 0.0, 0.0, 1.0, 0.0, 0.0, 0.0, 0.0]]}, {"feature": [77, 72, 54, 28, -2, 10, -2, -2, 68, 82, 64, 76, -2, -2, 31, 67, 20, 63, 79, -2, -2, 63, 66, 73, 33, -2, -2, -2, 44, -2, 5, 15, -2, -2, -2, 60, -2, 19, -2, -2, 19, 50, -2, 38, 61, -2, -2, -2, -2, 70, 59, -2, -2, -2, 82, 63, 81, 80, -2, -2, -2, 84, -2, -2, -2, 32, -2, -2, 63, -2, 26, -2, 64, 63, 49, -2, -2, -2, -2, -2, 64, 11, 41, -2, 20, -2, -2, -2, -2], "threshold": [2.570559859275818, 0.35114990174770355, -0.5137666761875153, 0.5802587270736694, -2.0, 0.4626960903406143, -2.0, -2.0, 0.6859101355075836, 1.176649272441864, 0.1948796808719635, 2.463203549385071, -2.0, -2.0, 0.8478220701217651, 0.518909215927124, -0.17391327023506165, 0.41805700957775116, 1.7561090588569641, -2.0, -2.0, 0.5541389882564545, 0.516057163476944, 2.3604742288589478, 0.08569572120904922, -2.0, -2.0, -2.0, -0.19057229161262512, -2.0, -0.10277606919407845, 0.09838969632983208, -2.0, -2.0, -2.0, -0.383454829454422, -2.0, 0.6390062272548676, -2.0, -2.0, 0.8317537903785706, -0.48733773827552795, -2.0, 0.3157036378979683, 0.9311389625072479, -2.0, -2.0, -2.0, -2.0, 0.27935609221458435, -0.1338649597018957, -2.0, -2.0, -2.0, 1.000525951385498, 0.6638314723968506, 2.417251944541931, 1.8737969994544983, -2.0, -2.0, -2.0, 0.6628060340881348, -2.0, -2.0, -2.0, 0.06252302974462509, -2.0, -2.0, 0.4995408058166504, -2.0, -0.3726399689912796, -2.0, 0.7626038193702698, 0.6454750299453735, 0.4214315116405487, -2.0, -2.0, -2.0, -2.0, -2.0, 0.7603907585144043, 0.15536615625023842, -0.11242536082863808, -2.0, 0.14551027864217758, -2.0, -2.0, -2.0, -2.0], "children_left": [1, 2, 3, 4, -1, 6, -1, -1, 9, 10, 11, 12, -1, -1, 15, 16, 17, 18, 19, -1, -1, 22, 23, 24, 25, -1, -1, -1, 29, -1, 31, 32, -1, -1, -1, 36, -1, 38, -1, -1, 41, 42, -1, 44, 45, -1, -1, -1, -1, 50, 51, -1, -1, -1, 55, 56, 57, 58, -1, -1, -1, 62, -1, -1, -1, 66, -1, -1, 69, -1, 71, -1, 73, 74, 75, -1, -1, -1, -1, -1, 81, 82, 83, -1, 85, -1, -1, -1, -1], "children_right": [80, 79, 8, 5, -1, 7, -1, -1, 68, 65, 14, 13, -1, -1, 54, 49, 40, 21, 20, -1, -1, 35, 28, 27, 26, -1, -1, -1, 30, -1, 34, 33, -1, -1, -1, 37, -1, 39, -1, -1, 48, 43, -1, 47, 46, -1, -1, -1, -1, 53, 52, -1, -1, -1, 64, 61, 60, 59, -1, -1, -1, 63, -1, -1, -1, 67, -1, -1, 70, -1, 72, -1, 78, 77, 76, -1, -1, -1, -1, -1, 88, 87, 84, -1, 86, -1, -1, -1, -1], "value": [[0.05375552282768778, 0.04933726067746686, 0.051055473735886106, 0.050073637702503684, 0.049091801669121256, 0.052037309769268535, 0.05277368679430535, 0.05031909671084929, 0.05694648993618066, 0.052037309769268535, 0.05154639175257732, 0.052037309769268535, 0.049091801669121256, 0.050073637702503684, 0.04982817869415808, 0.05351006381934217, 0.04786450662739323, 0.08001963672066764, 0.048600883652430045], [0.06366279069767442, 0.05843023255813953, 0.06046511627906977, 0.05930232558139535, 0.05813953488372093, 0.00029069767441860465, 0.06133720930232558, 0.059593023255813955, 0.06744186046511629, 0.06162790697674419, 0.061046511627906974, 0.06162790697674419, 0.05813953488372093, 0.0, 0.05901162790697674, 0.0011627906976744186, 0.056686046511627904, 0.09447674418604651, 0.05755813953488372], [0.06765523632993513, 0.06209453197405004, 0.0642570281124498, 0.06302131603336422, 0.06178560395427865, 0.00030892801977139327, 0.06518381217176399, 0.06333024405313561, 0.07167130058696324, 0.06549274019153538, 0.06487488415199258, 0.06549274019153538, 0.06178560395427865, 0.0, 0.0, 0.001235712079085573, 0.060240963855421686, 0.10040160642570281, 0.061167747914735865], [0.004878048780487805, 0.0, 0.0, 0.0, 0.0, 0.0, 0.0, 0.0, 0.0, 0.0, 0.9804878048780488, 0.0, 0.014634146341463415, 0.0, 0.0, 0.0, 0.0, 0.0, 0.0], [0.0, 0.0, 0.0, 0.0, 0.0, 0.0, 0.0, 0.0, 0.0, 0.0, 1.0, 0.0, 0.0, 0.0, 0.0, 0.0, 0.0, 0.0, 0.0], [0.25, 0.0, 0.0, 0.0, 0.0, 0.0, 0.0, 0.0, 0.0, 0.0, 0.0, 0.0, 0.75, 0.0, 0.0, 0.0, 0.0, 0.0, 0.0], [0.0, 0.0, 0.0, 0.0, 0.0, 0.0, 0.0, 0.0, 0.0, 0.0, 0.0, 0.0, 1.0, 0.0, 0.0, 0.0, 0.0, 0.0, 0.0], [1.0, 0.0, 0.0, 0.0, 0.0, 0.0, 0.0, 0.0, 0.0, 0.0, 0.0, 0.0, 0.0, 0.0, 0.0, 0.0, 0.0, 0.0, 0.0], [0.07189973614775726, 0.06629287598944592, 0.06860158311345646, 0.06728232189973615, 0.06596306068601583, 0.00032981530343007914, 0.0695910290237467, 0.06761213720316622, 0.07651715039577836, 0.06992084432717678, 0.002968337730870712, 0.06992084432717678, 0.0649736147757256, 0.0, 0.0, 0.0013192612137203166, 0.06431398416886544, 0.10718997361477572, 0.06530343007915568], [0.006366530241018645, 0.0, 0.0, 0.0927694406548431, 0.0009095043201455207, 0.00045475216007276033, 0.09595270577535243, 0.09322419281491587, 0.1055025011368804, 0.0964074579354252, 0.004092769440654843, 0.0904956798544793, 0.08958617553433379, 0.0, 0.0, 0.0018190086402910413, 0.08867667121418826, 0.14370168258299226, 0.09004092769440655], [0.006993006993006993, 0.0, 0.0, 0.1018981018981019, 0.000999000999000999, 0.0, 0.10539460539460539, 0.1023976023976024, 0.11588411588411589, 0.10589410589410589, 0.004495504495504496, 0.09940059940059941, 0.0004995004995004995, 0.0, 0.0, 0.001998001998001998, 0.09740259740259741, 0.15784215784215785, 0.0989010989010989], [0.0, 0.0, 0.0, 0.0, 0.0, 0.0, 0.0, 0.5086848635235732, 0.0, 0.0, 0.0, 0.0, 0.0, 0.0, 0.0, 0.0, 0.0, 0.0, 0.4913151364764268], [0.0, 0.0, 0.0, 0.0, 0.0, 0.0, 0.0, 1.0, 0.0, 0.0, 0.0, 0.0, 0.0, 0.0, 0.0, 0.0, 0.0, 0.0, 0.0], [0.0, 0.0, 0.0, 0.0, 0.0, 0.0, 0.0, 0.0, 0.0, 0.0, 0.0, 0.0, 0.0, 0.0, 0.0, 0.0, 0.0, 0.0, 1.0], [0.008755472170106316, 0.0, 0.0, 0.1275797373358349, 0.0012507817385866166, 0.0, 0.13195747342088807, 0.0, 0.14509068167604752, 0.13258286429018137, 0.005628517823639775, 0.12445278298936835, 0.0006253908692933083, 0.0, 0.0, 0.0025015634771732333, 0.12195121951219512, 0.19762351469668543, 0.0], [0.0, 0.0, 0.0, 0.0025619128949615714, 0.0017079419299743809, 0.0, 0.17677198975234842, 0.0, 0.1981212638770282, 0.0025619128949615714, 0.007685738684884714, 0.1699402220324509, 0.0008539709649871904, 0.0, 0.0, 0.0034158838599487617, 0.16652433817250215, 0.2698548249359522, 0.0], [0.0, 0.0, 0.0, 0.0, 0.0027137042062415195, 0.0, 0.2808683853459973, 0.0, 0.0, 0.004070556309362279, 0.012211668928086838, 0.0, 0.0013568521031207597, 0.0, 0.0, 0.005427408412483039, 0.2645861601085482, 0.4287652645861601, 0.0], [0.0, 0.0, 0.0, 0.0, 0.0, 0.0, 0.5073529411764706, 0.0, 0.0, 0.007352941176470588, 0.022058823529411766, 0.0, 0.0, 0.0, 0.0, 0.007352941176470588, 0.43137254901960786, 0.024509803921568627, 0.0], [0.0, 0.0, 0.0, 0.0, 0.0, 0.0, 0.017142857142857144, 0.0, 0.0, 0.0, 0.0, 0.0, 0.0, 0.0, 0.0, 0.0, 0.9828571428571429, 0.0, 0.0], [0.0, 0.0, 0.0, 0.0, 0.0, 0.0, 0.0, 0.0, 0.0, 0.0, 0.0, 0.0, 0.0, 0.0, 0.0, 0.0, 1.0, 0.0, 0.0], [0.0, 0.0, 0.0, 0.0, 0.0, 0.0, 1.0, 0.0, 0.0, 0.0, 0.0, 0.0, 0.0, 0.0, 0.0, 0.0, 0.0, 0.0, 0.0], [0.0, 0.0, 0.0, 0.0, 0.0, 0.0, 0.8755364806866953, 0.0, 0.0, 0.012875536480686695, 0.03862660944206009, 0.0, 0.0, 0.0, 0.0, 0.012875536480686695, 0.017167381974248927, 0.04291845493562232, 0.0], [0.0, 0.0, 0.0, 0.0, 0.0, 0.0, 0.9311926605504587, 0.0, 0.0, 0.013761467889908258, 0.0, 0.0, 0.0, 0.0, 0.0, 0.013761467889908258, 0.01834862385321101, 0.022935779816513763, 0.0], [0.0, 0.0, 0.0, 0.0, 0.0, 0.0, 0.0, 0.0, 0.0, 0.375, 0.0, 0.0, 0.0, 0.0, 0.0, 0.0, 0.5, 0.125, 0.0], [0.0, 0.0, 0.0, 0.0, 0.0, 0.0, 0.0, 0.0, 0.0, 0.75, 0.0, 0.0, 0.0, 0.0, 0.0, 0.0, 0.0, 0.25, 0.0], [0.0, 0.0, 0.0, 0.0, 0.0, 0.0, 0.0, 0.0, 0.0, 1.0, 0.0, 0.0, 0.0, 0.0, 0.0, 0.0, 0.0, 0.0, 0.0], [0.0, 0.0, 0.0, 0.0, 0.0, 0.0, 0.0, 0.0, 0.0, 0.0, 0.0, 0.0, 0.0, 0.0, 0.0, 0.0, 0.0, 1.0, 0.0], [0.0, 0.0, 0.0, 0.0, 0.0, 0.0, 0.0, 0.0, 0.0, 0.0, 0.0, 0.0, 0.0, 0.0, 0.0, 0.0, 1.0, 0.0, 0.0], [0.0, 0.0, 0.0, 0.0, 0.0, 0.0, 0.9666666666666667, 0.0, 0.0, 0.0, 0.0, 0.0, 0.0, 0.0, 0.0, 0.014285714285714285, 0.0, 0.01904761904761905, 0.0], [0.0, 0.0, 0.0, 0.0, 0.0, 0.0, 1.0, 0.0, 0.0, 0.0, 0.0, 0.0, 0.0, 0.0, 0.0, 0.0, 0.0, 0.0, 0.0], [0.0, 0.0, 0.0, 0.0, 0.0, 0.0, 0.2222222222222222, 0.0, 0.0, 0.0, 0.0, 0.0, 0.0, 0.0, 0.0, 0.3333333333333333, 0.0, 0.4444444444444444, 0.0], [0.0, 0.0, 0.0, 0.0, 0.0, 0.0, 0.4, 0.0, 0.0, 0.0, 0.0, 0.0, 0.0, 0.0, 0.0, 0.6, 0.0, 0.0, 0.0], [0.0, 0.0, 0.0, 0.0, 0.0, 0.0, 1.0, 0.0, 0.0, 0.0, 0.0, 0.0, 0.0, 0.0, 0.0, 0.0, 0.0, 0.0, 0.0], [0.0, 0.0, 0.0, 0.0, 0.0, 0.0, 0.0, 0.0, 0.0, 0.0, 0.0, 0.0, 0.0, 0.0, 0.0, 1.0, 0.0, 0.0, 0.0], [0.0, 0.0, 0.0, 0.0, 0.0, 0.0, 0.0, 0.0, 0.0, 0.0, 0.0, 0.0, 0.0, 0.0, 0.0, 0.0, 0.0, 1.0, 0.0], [0.0, 0.0, 0.0, 0.0, 0.0, 0.0, 0.06666666666666667, 0.0, 0.0, 0.0, 0.6, 0.0, 0.0, 0.0, 0.0, 0.0, 0.0, 0.3333333333333333, 0.0], [0.0, 0.0, 0.0, 0.0, 0.0, 0.0, 0.0, 0.0, 0.0, 0.0, 1.0, 0.0, 0.0, 0.0, 0.0, 0.0, 0.0, 0.0, 0.0], [0.0, 0.0, 0.0, 0.0, 0.0, 0.0, 0.16666666666666666, 0.0, 0.0, 0.0, 0.0, 0.0, 0.0, 0.0, 0.0, 0.0, 0.0, 0.8333333333333334, 0.0], [0.0, 0.0, 0.0, 0.0, 0.0, 0.0, 1.0, 0.0, 0.0, 0.0, 0.0, 0.0, 0.0, 0.0, 0.0, 0.0, 0.0, 0.0, 0.0], [0.0, 0.0, 0.0, 0.0, 0.0, 0.0, 0.0, 0.0, 0.0, 0.0, 0.0, 0.0, 0.0, 0.0, 0.0, 0.0, 0.0, 1.0, 0.0], [0.0, 0.0, 0.0, 0.0, 0.0060790273556231, 0.0, 0.0, 0.0, 0.0, 0.0, 0.0, 0.0, 0.00303951367781155, 0.0, 0.0, 0.00303951367781155, 0.057750759878419454, 0.9300911854103343, 0.0], [0.0, 0.0, 0.0, 0.0, 0.0064516129032258064, 0.0, 0.0, 0.0, 0.0, 0.0, 0.0, 0.0, 0.0032258064516129032, 0.0, 0.0, 0.0032258064516129032, 0.0, 0.9870967741935484, 0.0], [0.0, 0.0, 0.0, 0.0, 0.0, 0.0, 0.0, 0.0, 0.0, 0.0, 0.0, 0.0, 1.0, 0.0, 0.0, 0.0, 0.0, 0.0, 0.0], [0.0, 0.0, 0.0, 0.0, 0.006472491909385114, 0.0, 0.0, 0.0, 0.0, 0.0, 0.0, 0.0, 0.0, 0.0, 0.0, 0.003236245954692557, 0.0, 0.9902912621359223, 0.0], [0.0, 0.0, 0.0, 0.0, 0.0, 0.0, 0.0, 0.0, 0.0, 0.0, 0.0, 0.0, 0.0, 0.0, 0.0, 0.003257328990228013, 0.0, 0.996742671009772, 0.0], [0.0, 0.0, 0.0, 0.0, 0.0, 0.0, 0.0, 0.0, 0.0, 0.0, 0.0, 0.0, 0.0, 0.0, 0.0, 0.0, 0.0, 1.0, 0.0], [0.0, 0.0, 0.0, 0.0, 0.0, 0.0, 0.0, 0.0, 0.0, 0.0, 0.0, 0.0, 0.0, 0.0, 0.0, 1.0, 0.0, 0.0, 0.0], [0.0, 0.0, 0.0, 0.0, 1.0, 0.0, 0.0, 0.0, 0.0, 0.0, 0.0, 0.0, 0.0, 0.0, 0.0, 0.0, 0.0, 0.0, 0.0], [0.0, 0.0, 0.0, 0.0, 0.0, 0.0, 0.0, 0.0, 0.0, 0.0, 0.0, 0.0, 0.0, 0.0, 0.0, 0.0, 1.0, 0.0, 0.0], [0.0, 0.0, 0.0, 0.0069124423963133645, 0.0, 0.0, 0.0, 0.0, 0.5345622119815668, 0.0, 0.0, 0.45852534562211983, 0.0, 0.0, 0.0, 0.0, 0.0, 0.0, 0.0], [0.0, 0.0, 0.0, 0.01485148514851485, 0.0, 0.0, 0.0, 0.0, 0.0, 0.0, 0.0, 0.9851485148514851, 0.0, 0.0, 0.0, 0.0, 0.0, 0.0, 0.0], [0.0, 0.0, 0.0, 1.0, 0.0, 0.0, 0.0, 0.0, 0.0, 0.0, 0.0, 0.0, 0.0, 0.0, 0.0, 0.0, 0.0, 0.0, 0.0], [0.0, 0.0, 0.0, 0.0, 0.0, 0.0, 0.0, 0.0, 0.0, 0.0, 0.0, 1.0, 0.0, 0.0, 0.0, 0.0, 0.0, 0.0, 0.0], [0.0, 0.0, 0.0, 0.0, 0.0, 0.0, 0.0, 0.0, 1.0, 0.0, 0.0, 0.0, 0.0, 0.0, 0.0, 0.0, 0.0, 0.0, 0.0], [0.03271028037383177, 0.0, 0.0, 0.4696261682242991, 0.0, 0.0, 0.009345794392523364, 0.0, 0.0, 0.4883177570093458, 0.0, 0.0, 0.0, 0.0, 0.0, 0.0, 0.0, 0.0, 0.0], [0.06140350877192982, 0.0, 0.0, 0.0043859649122807015, 0.0, 0.0, 0.017543859649122806, 0.0, 0.0, 0.9166666666666666, 0.0, 0.0, 0.0, 0.0, 0.0, 0.0, 0.0, 0.0, 0.0], [0.0, 0.0, 0.0, 0.0, 0.0, 0.0, 0.018779342723004695, 0.0, 0.0, 0.9812206572769953, 0.0, 0.0, 0.0, 0.0, 0.0, 0.0, 0.0, 0.0, 0.0], [0.0, 0.0, 0.0, 0.0, 0.0, 0.0, 0.5714285714285714, 0.0, 0.0, 0.42857142857142855, 0.0, 0.0, 0.0, 0.0, 0.0, 0.0, 0.0, 0.0, 0.0], [0.0, 0.0, 0.0, 0.0, 0.0, 0.0, 0.0, 0.0, 0.0, 1.0, 0.0, 0.0, 0.0, 0.0, 0.0, 0.0, 0.0, 0.0, 0.0], [0.0, 0.0, 0.0, 0.0, 0.0, 0.0, 1.0, 0.0, 0.0, 0.0, 0.0, 0.0, 0.0, 0.0, 0.0, 0.0, 0.0, 0.0, 0.0], [0.0, 0.0, 0.0, 0.0, 0.0, 0.0, 0.0, 0.0, 0.0, 1.0, 0.0, 0.0, 0.0, 0.0, 0.0, 0.0, 0.0, 0.0, 0.0], [0.9333333333333333, 0.0, 0.0, 0.06666666666666667, 0.0, 0.0, 0.0, 0.0, 0.0, 0.0, 0.0, 0.0, 0.0, 0.0, 0.0, 0.0, 0.0, 0.0, 0.0], [1.0, 0.0, 0.0, 0.0, 0.0, 0.0, 0.0, 0.0, 0.0, 0.0, 0.0, 0.0, 0.0, 0.0, 0.0, 0.0, 0.0, 0.0, 0.0], [0.0, 0.0, 0.0, 1.0, 0.0, 0.0, 0.0, 0.0, 0.0, 0.0, 0.0, 0.0, 0.0, 0.0, 0.0, 0.0, 0.0, 0.0, 0.0], [0.0, 0.0, 0.0, 1.0, 0.0, 0.0, 0.0, 0.0, 0.0, 0.0, 0.0, 0.0, 0.0, 0.0, 0.0, 0.0, 0.0, 0.0, 0.0], [0.0, 0.0, 0.0, 0.0, 0.0, 0.005076142131979695, 0.0, 0.0, 0.0, 0.0, 0.0, 0.0, 0.9949238578680203, 0.0, 0.0, 0.0, 0.0, 0.0, 0.0], [0.0, 0.0, 0.0, 0.0, 0.0, 0.0, 0.0, 0.0, 0.0, 0.0, 0.0, 0.0, 1.0, 0.0, 0.0, 0.0, 0.0, 0.0, 0.0], [0.0, 0.0, 0.0, 0.0, 0.0, 1.0, 0.0, 0.0, 0.0, 0.0, 0.0, 0.0, 0.0, 0.0, 0.0, 0.0, 0.0, 0.0, 0.0], [0.24489795918367346, 0.24129651860744297, 0.24969987995198079, 0.0, 0.23769507803121248, 0.0, 0.0, 0.0, 0.0, 0.0, 0.0, 0.015606242496998799, 0.0, 0.0, 0.0, 0.0, 0.0, 0.010804321728691477, 0.0], [0.0, 0.0, 1.0, 0.0, 0.0, 0.0, 0.0, 0.0, 0.0, 0.0, 0.0, 0.0, 0.0, 0.0, 0.0, 0.0, 0.0, 0.0, 0.0], [0.3264, 0.3216, 0.0, 0.0, 0.3168, 0.0, 0.0, 0.0, 0.0, 0.0, 0.0, 0.0208, 0.0, 0.0, 0.0, 0.0, 0.0, 0.0144, 0.0], [1.0, 0.0, 0.0, 0.0, 0.0, 0.0, 0.0, 0.0, 0.0, 0.0, 0.0, 0.0, 0.0, 0.0, 0.0, 0.0, 0.0, 0.0, 0.0], [0.0, 0.47743467933491684, 0.0, 0.0, 0.47030878859857483, 0.0, 0.0, 0.0, 0.0, 0.0, 0.0, 0.030878859857482184, 0.0, 0.0, 0.0, 0.0, 0.0, 0.021377672209026127, 0.0], [0.0, 0.9013452914798207, 0.0, 0.0, 0.0, 0.0, 0.0, 0.0, 0.0, 0.0, 0.0, 0.05829596412556054, 0.0, 0.0, 0.0, 0.0, 0.0, 0.04035874439461883, 0.0], [0.0, 0.0, 0.0, 0.0, 0.0, 0.0, 0.0, 0.0, 0.0, 0.0, 0.0, 0.5909090909090909, 0.0, 0.0, 0.0, 0.0, 0.0, 0.4090909090909091, 0.0], [0.0, 0.0, 0.0, 0.0, 0.0, 0.0, 0.0, 0.0, 0.0, 0.0, 0.0, 0.0, 0.0, 0.0, 0.0, 0.0, 0.0, 1.0, 0.0], [0.0, 0.0, 0.0, 0.0, 0.0, 0.0, 0.0, 0.0, 0.0, 0.0, 0.0, 1.0, 0.0, 0.0, 0.0, 0.0, 0.0, 0.0, 0.0], [0.0, 1.0, 0.0, 0.0, 0.0, 0.0, 0.0, 0.0, 0.0, 0.0, 0.0, 0.0, 0.0, 0.0, 0.0, 0.0, 0.0, 0.0, 0.0], [0.0, 0.0, 0.0, 0.0, 1.0, 0.0, 0.0, 0.0, 0.0, 0.0, 0.0, 0.0, 0.0, 0.0, 0.0, 0.0, 0.0, 0.0, 0.0], [0.0, 0.0, 0.0, 0.0, 0.0, 0.0, 0.0, 0.0, 0.0, 0.0, 0.0, 0.0, 0.0, 0.0, 1.0, 0.0, 0.0, 0.0, 0.0], [0.0, 0.0, 0.0, 0.0, 0.0, 0.33280757097791797, 0.006309148264984227, 0.0, 0.0, 0.0, 0.0, 0.0, 0.0, 0.3217665615141956, 0.0, 0.33753943217665616, 0.0, 0.0015772870662460567, 0.0], [0.0, 0.0, 0.0, 0.0, 0.0, 0.0, 0.009456264775413711, 0.0, 0.0, 0.0, 0.0, 0.0, 0.0, 0.48226950354609927, 0.0, 0.5059101654846335, 0.0, 0.002364066193853428, 0.0], [0.0, 0.0, 0.0, 0.0, 0.0, 0.0, 0.0182648401826484, 0.0, 0.0, 0.0, 0.0, 0.0, 0.0, 0.0, 0.0, 0.9771689497716894, 0.0, 0.0045662100456621, 0.0], [0.0, 0.0, 0.0, 0.0, 0.0, 0.0, 1.0, 0.0, 0.0, 0.0, 0.0, 0.0, 0.0, 0.0, 0.0, 0.0, 0.0, 0.0, 0.0], [0.0, 0.0, 0.0, 0.0, 0.0, 0.0, 0.0, 0.0, 0.0, 0.0, 0.0, 0.0, 0.0, 0.0, 0.0, 0.9953488372093023, 0.0, 0.004651162790697674, 0.0], [0.0, 0.0, 0.0, 0.0, 0.0, 0.0, 0.0, 0.0, 0.0, 0.0, 0.0, 0.0, 0.0, 0.0, 0.0, 1.0, 0.0, 0.0, 0.0], [0.0, 0.0, 0.0, 0.0, 0.0, 0.0, 0.0, 0.0, 0.0, 0.0, 0.0, 0.0, 0.0, 0.0, 0.0, 0.0, 0.0, 1.0, 0.0], [0.0, 0.0, 0.0, 0.0, 0.0, 0.0, 0.0, 0.0, 0.0, 0.0, 0.0, 0.0, 0.0, 1.0, 0.0, 0.0, 0.0, 0.0, 0.0], [0.0, 0.0, 0.0, 0.0, 0.0, 1.0, 0.0, 0.0, 0.0, 0.0, 0.0, 0.0, 0.0, 0.0, 0.0, 0.0, 0.0, 0.0, 0.0]]}, {"feature": [77, 66, 31, 80, -2, -2, -2, 64, 77, 70, 78, 63, 43, 29, 24, 78, -2, -2, -2, 26, -2, -2, 21, 19, -2, 61, -2, 85, -2, -2, -2, -2, 80, 69, -2, -2, 21, 46, -2, -2, 84, 80, 68, -2, -2, 71, -2, -2, 79, 7, -2, -2, 19, -2, -2, 72, 46, -2, -2, -2, 17, 53, -2, 65, 78, -2, -2, -2, 73, 79, 26, 5, -2, 44, -2, -2, 50, -2, -2, -2, 41, -2, -2, 83, -2, 85, -2, 81, -2, -2, 40, -2, 82, 49, -2, -2, -2], "threshold": [2.589324951171875, 0.12407001107931137, 0.6731029450893402, 0.07776612788438797, -2.0, -2.0, -2.0, 0.787474513053894, 2.1123002767562866, 0.17839901894330978, 0.9751156866550446, 0.654572993516922, 0.6695222556591034, 0.08541902154684067, 0.23607289604842663, 0.9091301560401917, -2.0, -2.0, -2.0, 0.3304622545838356, -2.0, -2.0, 0.35713690519332886, 0.687183290719986, -2.0, 0.6387601792812347, -2.0, -0.027762841433286667, -2.0, -2.0, -2.0, -2.0, 0.7896432280540466, 0.6057751476764679, -2.0, -2.0, -0.17259296029806137, 0.7300334274768829, -2.0, -2.0, 0.6449699997901917, 2.0195255875587463, 0.4650726616382599, -2.0, -2.0, 0.2601362243294716, -2.0, -2.0, 1.421754539012909, 0.34388045966625214, -2.0, -2.0, 0.7642139792442322, -2.0, -2.0, 0.28260549157857895, 0.5294500887393951, -2.0, -2.0, -2.0, -0.11587374284863472, -0.10114980861544609, -2.0, 0.6225643455982208, 1.4031221270561218, -2.0, -2.0, -2.0, 2.54313063621521, 1.5618101358413696, 0.38956084847450256, -0.08234316483139992, -2.0, -0.009627927094697952, -2.0, -2.0, 0.06879702396690845, -2.0, -2.0, -2.0, -0.1754380688071251, -2.0, -2.0, -0.17806334048509598, -2.0, -0.09939279034733772, -2.0, 1.4544482231140137, -2.0, -2.0, 0.27530351281166077, -2.0, 1.0699197053909302, 0.8072492480278015, -2.0, -2.0, -2.0], "children_left": [1, 2, 3, 4, -1, -1, -1, 8, 9, 10, 11, 12, 13, 14, 15, 16, -1, -1, -1, 20, -1, -1, 23, 24, -1, 26, -1, 28, -1, -1, -1, -1, 33, 34, -1, -1, 37, 38, -1, -1, 41, 42, 43, -1, -1, 46, -1, -1, 49, 50, -1, -1, 53, -1, -1, 56, 57, -1, -1, -1, 61, 62, -1, 64, 65, -1, -1, -1, 69, 70, 71, 72, -1, 74, -1, -1, 77, -1, -1, -1, 81, -1, -1, 84, -1, 86, -1, 88, -1, -1, 91, -1, 93, 94, -1, -1, -1], "children_right": [90, 7, 6, 5, -1, -1, -1, 83, 60, 55, 32, 31, 22, 19, 18, 17, -1, -1, -1, 21, -1, -1, 30, 25, -1, 27, -1, 29, -1, -1, -1, -1, 36, 35, -1, -1, 40, 39, -1, -1, 48, 45, 44, -1, -1, 47, -1, -1, 52, 51, -1, -1, 54, -1, -1, 59, 58, -1, -1, -1, 68, 63, -1, 67, 66, -1, -1, -1, 80, 79, 76, 73, -1, 75, -1, -1, 78, -1, -1, -1, 82, -1, -1, 85, -1, 87, -1, 89, -1, -1, 92, -1, 96, 95, -1, -1, -1], "value": [[0.054000981836033385, 0.05719194894452626, 0.047128129602356406, 0.04933726067746686, 0.051055473735886106, 0.04958271968581247, 0.050564555719194895, 0.05326460481099656, 0.0547373588610702, 0.04590083456062838, 0.05375552282768778, 0.05031909671084929, 0.05130093274423171, 0.051055473735886106, 0.05351006381934217, 0.05670103092783505, 0.043200785468826705, 0.07216494845360824, 0.05522827687776141], [0.06391632771644393, 0.06769320162696107, 0.0557815223707147, 0.05839628123184195, 0.06042998256827426, 0.0020337013364323067, 0.05926786751888437, 0.06304474142940152, 0.06478791400348634, 0.05432887855897734, 0.06362579895409645, 0.05955839628123184, 0.06072051133062173, 0.0, 0.06333527019174898, 0.0011621150493898896, 0.05113306217315514, 0.08541545613015689, 0.06536897152818129], [0.0, 0.0, 0.0, 0.0, 0.0, 0.0, 0.0, 0.4875283446712018, 0.0, 0.0, 0.0, 0.0, 0.0, 0.0, 0.0, 0.0, 0.0, 0.0022675736961451248, 0.5102040816326531], [0.0, 0.0, 0.0, 0.0, 0.0, 0.0, 0.0, 0.0, 0.0, 0.0, 0.0, 0.0, 0.0, 0.0, 0.0, 0.0, 0.0, 0.004424778761061947, 0.995575221238938], [0.0, 0.0, 0.0, 0.0, 0.0, 0.0, 0.0, 0.0, 0.0, 0.0, 0.0, 0.0, 0.0, 0.0, 0.0, 0.0, 0.0, 1.0, 0.0], [0.0, 0.0, 0.0, 0.0, 0.0, 0.0, 0.0, 0.0, 0.0, 0.0, 0.0, 0.0, 0.0, 0.0, 0.0, 0.0, 0.0, 0.0, 1.0], [0.0, 0.0, 0.0, 0.0, 0.0, 0.0, 0.0, 1.0, 0.0, 0.0, 0.0, 0.0, 0.0, 0.0, 0.0, 0.0, 0.0, 0.0, 0.0], [0.07330889703432189, 0.07764078640453183, 0.0639786737754082, 0.06697767410863045, 0.06931022992335888, 0.0023325558147284237, 0.06797734088637121, 0.0006664445184938354, 0.07430856381206265, 0.062312562479173605, 0.07297567477507498, 0.06831056314561813, 0.0696434521826058, 0.0, 0.07264245251582806, 0.0013328890369876708, 0.058647117627457515, 0.09763412195934688, 0.0], [0.09329940627650551, 0.09881255301102629, 0.08142493638676845, 0.08524173027989822, 0.0, 0.0, 0.08651399491094147, 0.0008481764206955047, 0.09457167090754877, 0.07930449533502969, 0.0, 0.08693808312128923, 0.0, 0.0, 0.09245122985581, 0.0016963528413910093, 0.07463952502120441, 0.12425784563189143, 0.0], [0.11276268580215275, 0.11737570476678626, 0.09841107124551512, 0.10199897488467452, 0.0, 0.0, 0.0025627883136852894, 0.0010251153254741158, 0.11430035879036392, 0.09584828293182983, 0.0, 0.10456176319835982, 0.0, 0.0, 0.11071245515120451, 0.0, 0.0902101486417222, 0.050230650948231675, 0.0], [0.15547703180212014, 0.1618374558303887, 0.13568904593639575, 0.14063604240282684, 0.0, 0.0, 0.0035335689045936395, 0.0014134275618374558, 0.0, 0.1321554770318021, 0.0, 0.14416961130742048, 0.0, 0.0, 0.0, 0.0, 0.12438162544169612, 0.0007067137809187279, 0.0], [0.0, 0.35893416927899685, 0.30094043887147337, 0.0, 0.0, 0.0, 0.0, 0.001567398119122257, 0.0, 0.0, 0.0, 0.31974921630094044, 0.0, 0.0, 0.0, 0.0, 0.018808777429467086, 0.0, 0.0], [0.0, 0.0024390243902439024, 0.4682926829268293, 0.0, 0.0, 0.0, 0.0, 0.0024390243902439024, 0.0, 0.0, 0.0, 0.4975609756097561, 0.0, 0.0, 0.0, 0.0, 0.02926829268292683, 0.0, 0.0], [0.0, 0.0, 0.19480519480519481, 0.0, 0.0, 0.0, 0.0, 0.0, 0.0, 0.0, 0.0, 0.8008658008658008, 0.0, 0.0, 0.0, 0.0, 0.004329004329004329, 0.0, 0.0], [0.0, 0.0, 0.9523809523809523, 0.0, 0.0, 0.0, 0.0, 0.0, 0.0, 0.0, 0.0, 0.023809523809523808, 0.0, 0.0, 0.0, 0.0, 0.023809523809523808, 0.0, 0.0], [0.0, 0.0, 0.0, 0.0, 0.0, 0.0, 0.0, 0.0, 0.0, 0.0, 0.0, 0.5, 0.0, 0.0, 0.0, 0.0, 0.5, 0.0, 0.0], [0.0, 0.0, 0.0, 0.0, 0.0, 0.0, 0.0, 0.0, 0.0, 0.0, 0.0, 1.0, 0.0, 0.0, 0.0, 0.0, 0.0, 0.0, 0.0], [0.0, 0.0, 0.0, 0.0, 0.0, 0.0, 0.0, 0.0, 0.0, 0.0, 0.0, 0.0, 0.0, 0.0, 0.0, 0.0, 1.0, 0.0, 0.0], [0.0, 0.0, 1.0, 0.0, 0.0, 0.0, 0.0, 0.0, 0.0, 0.0, 0.0, 0.0, 0.0, 0.0, 0.0, 0.0, 0.0, 0.0, 0.0], [0.0, 0.0, 0.026455026455026454, 0.0, 0.0, 0.0, 0.0, 0.0, 0.0, 0.0, 0.0, 0.9735449735449735, 0.0, 0.0, 0.0, 0.0, 0.0, 0.0, 0.0], [0.0, 0.0, 1.0, 0.0, 0.0, 0.0, 0.0, 0.0, 0.0, 0.0, 0.0, 0.0, 0.0, 0.0, 0.0, 0.0, 0.0, 0.0, 0.0], [0.0, 0.0, 0.0, 0.0, 0.0, 0.0, 0.0, 0.0, 0.0, 0.0, 0.0, 1.0, 0.0, 0.0, 0.0, 0.0, 0.0, 0.0, 0.0], [0.0, 0.00558659217877095, 0.8212290502793296, 0.0, 0.0, 0.0, 0.0, 0.00558659217877095, 0.0, 0.0, 0.0, 0.10614525139664804, 0.0, 0.0, 0.0, 0.0, 0.061452513966480445, 0.0, 0.0], [0.0, 0.03125, 0.0, 0.0, 0.0, 0.0, 0.0, 0.03125, 0.0, 0.0, 0.0, 0.59375, 0.0, 0.0, 0.0, 0.0, 0.34375, 0.0, 0.0], [0.0, 0.0, 0.0, 0.0, 0.0, 0.0, 0.0, 0.0, 0.0, 0.0, 0.0, 1.0, 0.0, 0.0, 0.0, 0.0, 0.0, 0.0, 0.0], [0.0, 0.07692307692307693, 0.0, 0.0, 0.0, 0.0, 0.0, 0.07692307692307693, 0.0, 0.0, 0.0, 0.0, 0.0, 0.0, 0.0, 0.0, 0.8461538461538461, 0.0, 0.0], [0.0, 0.0, 0.0, 0.0, 0.0, 0.0, 0.0, 0.0, 0.0, 0.0, 0.0, 0.0, 0.0, 0.0, 0.0, 0.0, 1.0, 0.0, 0.0], [0.0, 0.5, 0.0, 0.0, 0.0, 0.0, 0.0, 0.5, 0.0, 0.0, 0.0, 0.0, 0.0, 0.0, 0.0, 0.0, 0.0, 0.0, 0.0], [0.0, 1.0, 0.0, 0.0, 0.0, 0.0, 0.0, 0.0, 0.0, 0.0, 0.0, 0.0, 0.0, 0.0, 0.0, 0.0, 0.0, 0.0, 0.0], [0.0, 0.0, 0.0, 0.0, 0.0, 0.0, 0.0, 1.0, 0.0, 0.0, 0.0, 0.0, 0.0, 0.0, 0.0, 0.0, 0.0, 0.0, 0.0], [0.0, 0.0, 1.0, 0.0, 0.0, 0.0, 0.0, 0.0, 0.0, 0.0, 0.0, 0.0, 0.0, 0.0, 0.0, 0.0, 0.0, 0.0, 0.0], [0.0, 1.0, 0.0, 0.0, 0.0, 0.0, 0.0, 0.0, 0.0, 0.0, 0.0, 0.0, 0.0, 0.0, 0.0, 0.0, 0.0, 0.0, 0.0], [0.28314028314028317, 0.0, 0.0, 0.25611325611325614, 0.0, 0.0, 0.006435006435006435, 0.001287001287001287, 0.0, 0.24066924066924067, 0.0, 0.0, 0.0, 0.0, 0.0, 0.0, 0.21106821106821108, 0.001287001287001287, 0.0], [0.9775784753363229, 0.0, 0.0, 0.02242152466367713, 0.0, 0.0, 0.0, 0.0, 0.0, 0.0, 0.0, 0.0, 0.0, 0.0, 0.0, 0.0, 0.0, 0.0, 0.0], [0.0, 0.0, 0.0, 1.0, 0.0, 0.0, 0.0, 0.0, 0.0, 0.0, 0.0, 0.0, 0.0, 0.0, 0.0, 0.0, 0.0, 0.0, 0.0], [1.0, 0.0, 0.0, 0.0, 0.0, 0.0, 0.0, 0.0, 0.0, 0.0, 0.0, 0.0, 0.0, 0.0, 0.0, 0.0, 0.0, 0.0, 0.0], [0.0036101083032490976, 0.0, 0.0, 0.35018050541516244, 0.0, 0.0, 0.009025270758122744, 0.0018050541516245488, 0.0, 0.33754512635379064, 0.0, 0.0, 0.0, 0.0, 0.0, 0.0, 0.296028880866426, 0.0018050541516245488, 0.0], [0.0, 0.0, 0.0, 0.9479166666666666, 0.0, 0.0, 0.0, 0.0, 0.0, 0.0, 0.0, 0.0, 0.0, 0.0, 0.0, 0.0, 0.052083333333333336, 0.0, 0.0], [0.0, 0.0, 0.0, 0.0, 0.0, 0.0, 0.0, 0.0, 0.0, 0.0, 0.0, 0.0, 0.0, 0.0, 0.0, 0.0, 1.0, 0.0, 0.0], [0.0, 0.0, 0.0, 1.0, 0.0, 0.0, 0.0, 0.0, 0.0, 0.0, 0.0, 0.0, 0.0, 0.0, 0.0, 0.0, 0.0, 0.0, 0.0], [0.0055248618784530384, 0.0, 0.0, 0.03314917127071823, 0.0, 0.0, 0.013812154696132596, 0.0027624309392265192, 0.0, 0.5165745856353591, 0.0, 0.0, 0.0, 0.0, 0.0, 0.0, 0.425414364640884, 0.0027624309392265192, 0.0], [0.0, 0.0, 0.0, 0.006211180124223602, 0.0, 0.0, 0.031055900621118012, 0.0, 0.0, 0.0, 0.0, 0.0, 0.0, 0.0, 0.0, 0.0, 0.9565217391304348, 0.006211180124223602, 0.0], [0.0, 0.0, 0.0, 0.0064516129032258064, 0.0, 0.0, 0.0, 0.0, 0.0, 0.0, 0.0, 0.0, 0.0, 0.0, 0.0, 0.0, 0.9935483870967742, 0.0, 0.0], [0.0, 0.0, 0.0, 0.0, 0.0, 0.0, 0.0, 0.0, 0.0, 0.0, 0.0, 0.0, 0.0, 0.0, 0.0, 0.0, 1.0, 0.0, 0.0], [0.0, 0.0, 0.0, 1.0, 0.0, 0.0, 0.0, 0.0, 0.0, 0.0, 0.0, 0.0, 0.0, 0.0, 0.0, 0.0, 0.0, 0.0, 0.0], [0.0, 0.0, 0.0, 0.0, 0.0, 0.0, 0.8333333333333334, 0.0, 0.0, 0.0, 0.0, 0.0, 0.0, 0.0, 0.0, 0.0, 0.0, 0.16666666666666666, 0.0], [0.0, 0.0, 0.0, 0.0, 0.0, 0.0, 1.0, 0.0, 0.0, 0.0, 0.0, 0.0, 0.0, 0.0, 0.0, 0.0, 0.0, 0.0, 0.0], [0.0, 0.0, 0.0, 0.0, 0.0, 0.0, 0.0, 0.0, 0.0, 0.0, 0.0, 0.0, 0.0, 0.0, 0.0, 0.0, 0.0, 1.0, 0.0], [0.009950248756218905, 0.0, 0.0, 0.05472636815920398, 0.0, 0.0, 0.0, 0.004975124378109453, 0.0, 0.9303482587064676, 0.0, 0.0, 0.0, 0.0, 0.0, 0.0, 0.0, 0.0, 0.0], [0.15384615384615385, 0.0, 0.0, 0.8461538461538461, 0.0, 0.0, 0.0, 0.0, 0.0, 0.0, 0.0, 0.0, 0.0, 0.0, 0.0, 0.0, 0.0, 0.0, 0.0], [0.0, 0.0, 0.0, 1.0, 0.0, 0.0, 0.0, 0.0, 0.0, 0.0, 0.0, 0.0, 0.0, 0.0, 0.0, 0.0, 0.0, 0.0, 0.0], [1.0, 0.0, 0.0, 0.0, 0.0, 0.0, 0.0, 0.0, 0.0, 0.0, 0.0, 0.0, 0.0, 0.0, 0.0, 0.0, 0.0, 0.0, 0.0], [0.0, 0.0, 0.0, 0.0, 0.0, 0.0, 0.0, 0.005319148936170213, 0.0, 0.9946808510638298, 0.0, 0.0, 0.0, 0.0, 0.0, 0.0, 0.0, 0.0, 0.0], [0.0, 0.0, 0.0, 0.0, 0.0, 0.0, 0.0, 1.0, 0.0, 0.0, 0.0, 0.0, 0.0, 0.0, 0.0, 0.0, 0.0, 0.0, 0.0], [0.0, 0.0, 0.0, 0.0, 0.0, 0.0, 0.0, 0.0, 0.0, 1.0, 0.0, 0.0, 0.0, 0.0, 0.0, 0.0, 0.0, 0.0, 0.0], [0.0, 0.0, 0.0, 0.0, 0.0, 0.0, 0.0, 0.0, 0.416044776119403, 0.0, 0.0, 0.0, 0.0, 0.0, 0.40298507462686567, 0.0, 0.0, 0.18097014925373134, 0.0], [0.0, 0.0, 0.0, 0.0, 0.0, 0.0, 0.0, 0.0, 0.696875, 0.0, 0.0, 0.0, 0.0, 0.0, 0.0, 0.0, 0.0, 0.303125, 0.0], [0.0, 0.0, 0.0, 0.0, 0.0, 0.0, 0.0, 0.0, 0.0, 0.0, 0.0, 0.0, 0.0, 0.0, 0.0, 0.0, 0.0, 1.0, 0.0], [0.0, 0.0, 0.0, 0.0, 0.0, 0.0, 0.0, 0.0, 1.0, 0.0, 0.0, 0.0, 0.0, 0.0, 0.0, 0.0, 0.0, 0.0, 0.0], [0.0, 0.0, 0.0, 0.0, 0.0, 0.0, 0.0, 0.0, 0.0, 0.0, 0.0, 0.0, 0.0, 0.0, 1.0, 0.0, 0.0, 0.0, 0.0], [0.0, 0.009828009828009828, 0.0, 0.004914004914004914, 0.0, 0.0, 0.48894348894348894, 0.0, 0.0, 0.0, 0.0, 0.002457002457002457, 0.0, 0.0, 0.004914004914004914, 0.009828009828009828, 0.0, 0.47911547911547914, 0.0], [0.0, 0.0, 0.0, 0.0, 0.0, 0.0, 0.9313725490196079, 0.0, 0.0, 0.0, 0.0, 0.0, 0.0, 0.0, 0.0, 0.004901960784313725, 0.0, 0.06372549019607843, 0.0], [0.0, 0.0, 0.0, 0.0, 0.0, 0.0, 1.0, 0.0, 0.0, 0.0, 0.0, 0.0, 0.0, 0.0, 0.0, 0.0, 0.0, 0.0, 0.0], [0.0, 0.0, 0.0, 0.0, 0.0, 0.0, 0.3333333333333333, 0.0, 0.0, 0.0, 0.0, 0.0, 0.0, 0.0, 0.0, 0.047619047619047616, 0.0, 0.6190476190476191, 0.0], [0.0, 0.0, 0.0, 0.0, 0.0, 0.0, 0.875, 0.0, 0.0, 0.0, 0.0, 0.0, 0.0, 0.0, 0.0, 0.125, 0.0, 0.0, 0.0], [0.0, 0.0, 0.0, 0.0, 0.0, 0.0, 0.0, 0.0, 0.0, 0.0, 0.0, 0.0, 0.0, 0.0, 0.0, 1.0, 0.0, 0.0, 0.0], [0.0, 0.0, 0.0, 0.0, 0.0, 0.0, 1.0, 0.0, 0.0, 0.0, 0.0, 0.0, 0.0, 0.0, 0.0, 0.0, 0.0, 0.0, 0.0], [0.0, 0.0, 0.0, 0.0, 0.0, 0.0, 0.0, 0.0, 0.0, 0.0, 0.0, 0.0, 0.0, 0.0, 0.0, 0.0, 0.0, 1.0, 0.0], [0.0, 0.019704433497536946, 0.0, 0.009852216748768473, 0.0, 0.0, 0.04433497536945813, 0.0, 0.0, 0.0, 0.0, 0.0049261083743842365, 0.0, 0.0, 0.009852216748768473, 0.014778325123152709, 0.0, 0.896551724137931, 0.0], [0.0, 0.2, 0.0, 0.1, 0.0, 0.0, 0.4, 0.0, 0.0, 0.0, 0.0, 0.05, 0.0, 0.0, 0.1, 0.15, 0.0, 0.0, 0.0], [0.0, 0.3333333333333333, 0.0, 0.16666666666666666, 0.0, 0.0, 0.0, 0.0, 0.0, 0.0, 0.0, 0.08333333333333333, 0.0, 0.0, 0.16666666666666666, 0.25, 0.0, 0.0, 0.0], [0.0, 0.0, 0.0, 0.2857142857142857, 0.0, 0.0, 0.0, 0.0, 0.0, 0.0, 0.0, 0.0, 0.0, 0.0, 0.2857142857142857, 0.42857142857142855, 0.0, 0.0, 0.0], [0.0, 0.0, 0.0, 0.0, 0.0, 0.0, 0.0, 0.0, 0.0, 0.0, 0.0, 0.0, 0.0, 0.0, 0.0, 1.0, 0.0, 0.0, 0.0], [0.0, 0.0, 0.0, 0.5, 0.0, 0.0, 0.0, 0.0, 0.0, 0.0, 0.0, 0.0, 0.0, 0.0, 0.5, 0.0, 0.0, 0.0, 0.0], [0.0, 0.0, 0.0, 1.0, 0.0, 0.0, 0.0, 0.0, 0.0, 0.0, 0.0, 0.0, 0.0, 0.0, 0.0, 0.0, 0.0, 0.0, 0.0], [0.0, 0.0, 0.0, 0.0, 0.0, 0.0, 0.0, 0.0, 0.0, 0.0, 0.0, 0.0, 0.0, 0.0, 1.0, 0.0, 0.0, 0.0, 0.0], [0.0, 0.8, 0.0, 0.0, 0.0, 0.0, 0.0, 0.0, 0.0, 0.0, 0.0, 0.2, 0.0, 0.0, 0.0, 0.0, 0.0, 0.0, 0.0], [0.0, 1.0, 0.0, 0.0, 0.0, 0.0, 0.0, 0.0, 0.0, 0.0, 0.0, 0.0, 0.0, 0.0, 0.0, 0.0, 0.0, 0.0, 0.0], [0.0, 0.0, 0.0, 0.0, 0.0, 0.0, 0.0, 0.0, 0.0, 0.0, 0.0, 1.0, 0.0, 0.0, 0.0, 0.0, 0.0, 0.0, 0.0], [0.0, 0.0, 0.0, 0.0, 0.0, 0.0, 1.0, 0.0, 0.0, 0.0, 0.0, 0.0, 0.0, 0.0, 0.0, 0.0, 0.0, 0.0, 0.0], [0.0, 0.0, 0.0, 0.0, 0.0, 0.0, 0.00546448087431694, 0.0, 0.0, 0.0, 0.0, 0.0, 0.0, 0.0, 0.0, 0.0, 0.0, 0.994535519125683, 0.0], [0.0, 0.0, 0.0, 0.0, 0.0, 0.0, 1.0, 0.0, 0.0, 0.0, 0.0, 0.0, 0.0, 0.0, 0.0, 0.0, 0.0, 0.0, 0.0], [0.0, 0.0, 0.0, 0.0, 0.0, 0.0, 0.0, 0.0, 0.0, 0.0, 0.0, 0.0, 0.0, 0.0, 0.0, 0.0, 0.0, 1.0, 0.0], [0.0, 0.0, 0.0, 0.0, 0.3234836702954899, 0.01088646967340591, 0.0, 0.0, 0.0, 0.0, 0.3405909797822706, 0.0, 0.3250388802488336, 0.0, 0.0, 0.0, 0.0, 0.0, 0.0], [0.0, 0.0, 0.0, 0.0, 0.0, 0.0, 0.0, 0.0, 0.0, 0.0, 1.0, 0.0, 0.0, 0.0, 0.0, 0.0, 0.0, 0.0, 0.0], [0.0, 0.0, 0.0, 0.0, 0.49056603773584906, 0.01650943396226415, 0.0, 0.0, 0.0, 0.0, 0.0, 0.0, 0.49292452830188677, 0.0, 0.0, 0.0, 0.0, 0.0, 0.0], [0.0, 0.0, 0.0, 0.0, 0.0, 0.0, 0.0, 0.0, 0.0, 0.0, 0.0, 0.0, 1.0, 0.0, 0.0, 0.0, 0.0, 0.0, 0.0], [0.0, 0.0, 0.0, 0.0, 0.9674418604651163, 0.03255813953488372, 0.0, 0.0, 0.0, 0.0, 0.0, 0.0, 0.0, 0.0, 0.0, 0.0, 0.0, 0.0, 0.0], [0.0, 0.0, 0.0, 0.0, 1.0, 0.0, 0.0, 0.0, 0.0, 0.0, 0.0, 0.0, 0.0, 0.0, 0.0, 0.0, 0.0, 0.0, 0.0], [0.0, 0.0, 0.0, 0.0, 0.0, 1.0, 0.0, 0.0, 0.0, 0.0, 0.0, 0.0, 0.0, 0.0, 0.0, 0.0, 0.0, 0.0, 0.0], [0.0, 0.0, 0.0, 0.0, 0.0, 0.30854430379746833, 0.0031645569620253164, 0.0, 0.0, 0.0, 0.0, 0.0, 0.0, 0.3291139240506329, 0.0, 0.35917721518987344, 0.0, 0.0, 0.0], [0.0, 0.0, 0.0, 0.0, 0.0, 0.0, 0.0, 0.0, 0.0, 0.0, 0.0, 0.0, 0.0, 1.0, 0.0, 0.0, 0.0, 0.0, 0.0], [0.0, 0.0, 0.0, 0.0, 0.0, 0.45990566037735847, 0.0047169811320754715, 0.0, 0.0, 0.0, 0.0, 0.0, 0.0, 0.0, 0.0, 0.535377358490566, 0.0, 0.0, 0.0], [0.0, 0.0, 0.0, 0.0, 0.0, 0.0, 0.008733624454148471, 0.0, 0.0, 0.0, 0.0, 0.0, 0.0, 0.0, 0.0, 0.9912663755458515, 0.0, 0.0, 0.0], [0.0, 0.0, 0.0, 0.0, 0.0, 0.0, 1.0, 0.0, 0.0, 0.0, 0.0, 0.0, 0.0, 0.0, 0.0, 0.0, 0.0, 0.0, 0.0], [0.0, 0.0, 0.0, 0.0, 0.0, 0.0, 0.0, 0.0, 0.0, 0.0, 0.0, 0.0, 0.0, 0.0, 0.0, 1.0, 0.0, 0.0, 0.0], [0.0, 0.0, 0.0, 0.0, 0.0, 1.0, 0.0, 0.0, 0.0, 0.0, 0.0, 0.0, 0.0, 0.0, 0.0, 0.0, 0.0, 0.0, 0.0]]}, {"feature": [74, -2, 63, 75, -2, -2, 66, 29, 30, 80, 35, -2, -2, -2, 84, 79, 62, 67, 42, 24, 56, 52, -2, -2, -2, -2, -2, 74, 21, -2, -2, 50, -2, -2, 63, 68, -2, -2, -2, 64, 61, -2, -2, 72, 63, 32, 27, 64, -2, -2, -2, 77, 19, 65, -2, 63, -2, 20, 21, -2, -2, -2, 38, 19, 20, 38, -2, -2, -2, 34, -2, -2, 69, 44, -2, -2, -2, 57, -2, -2, 64, -2, -2, -2, 22, 69, -2, 69, -2, -2, 77, 68, -2, -2, -2, -2, 37, 77, -2, -2, -2], "threshold": [1.3944299221038818, -2.0, 0.21264764666557312, 2.8307894468307495, -2.0, -2.0, 1.07121080160141, 0.3791564553976059, -0.3123430460691452, 1.5988809168338776, 0.18597062304615974, -2.0, -2.0, -2.0, 0.6448518335819244, 0.6345543563365936, -0.003631518338806927, 0.8080706894397736, 0.13690471276640892, 0.4589711129665375, 0.02926709782332182, 0.38519009947776794, -2.0, -2.0, -2.0, -2.0, -2.0, 1.9263678789138794, 0.543889656662941, -2.0, -2.0, -0.199087955057621, -2.0, -2.0, 0.6612020432949066, 0.7404367327690125, -2.0, -2.0, -2.0, 0.4063103348016739, 0.7286285161972046, -2.0, -2.0, 0.30477292090654373, 0.7681756913661957, -0.23830948770046234, -0.18174009025096893, 0.6232914328575134, -2.0, -2.0, -2.0, 2.547393560409546, 0.662932425737381, 0.22946257144212723, -2.0, 0.48789845407009125, -2.0, 0.2225630022585392, 0.4455111473798752, -2.0, -2.0, -2.0, 0.04674823582172394, 0.7903982996940613, -0.21491845697164536, -0.3948228806257248, -2.0, -2.0, -2.0, 0.8313494026660919, -2.0, -2.0, 0.5788164734840393, 0.19585829228162766, -2.0, -2.0, -2.0, -0.23955105245113373, -2.0, -2.0, 0.7391546964645386, -2.0, -2.0, -2.0, 0.8599202334880829, 0.28259289264678955, -2.0, 0.7234398424625397, -2.0, -2.0, 2.1261894702911377, 0.37389853596687317, -2.0, -2.0, -2.0, -2.0, 0.8746873438358307, 2.3137946128845215, -2.0, -2.0, -2.0], "children_left": [1, -1, 3, 4, -1, -1, 7, 8, 9, 10, 11, -1, -1, -1, 15, 16, 17, 18, 19, 20, 21, 22, -1, -1, -1, -1, -1, 28, 29, -1, -1, 32, -1, -1, 35, 36, -1, -1, -1, 40, 41, -1, -1, 44, 45, 46, 47, 48, -1, -1, -1, 52, 53, 54, -1, 56, -1, 58, 59, -1, -1, -1, 63, 64, 65, 66, -1, -1, -1, 70, -1, -1, 73, 74, -1, -1, -1, 78, -1, -1, 81, -1, -1, -1, 85, 86, -1, 88, -1, -1, 91, 92, -1, -1, -1, -1, 97, 98, -1, -1, -1], "children_right": [2, -1, 6, 5, -1, -1, 96, 95, 14, 13, 12, -1, -1, -1, 84, 39, 34, 27, 26, 25, 24, 23, -1, -1, -1, -1, -1, 31, 30, -1, -1, 33, -1, -1, 38, 37, -1, -1, -1, 43, 42, -1, -1, 83, 80, 51, 50, 49, -1, -1, -1, 77, 62, 55, -1, 57, -1, 61, 60, -1, -1, -1, 72, 69, 68, 67, -1, -1, -1, 71, -1, -1, 76, 75, -1, -1, -1, 79, -1, -1, 82, -1, -1, -1, 90, 87, -1, 89, -1, -1, 94, 93, -1, -1, -1, -1, 100, 99, -1, -1, -1], "value": [[0.050564555719194895, 0.05277368679430535, 0.0508100147275405, 0.05130093274423171, 0.045164457535591555, 0.04933726067746686, 0.05228276877761414, 0.05768286696121748, 0.05277368679430535, 0.05351006381934217, 0.0508100147275405, 0.05154639175257732, 0.05277368679430535, 0.04737358861070201, 0.045655375552282766, 0.05547373588610702, 0.04958271968581247, 0.07756504663721159, 0.053019145802650956], [1.0, 0.0, 0.0, 0.0, 0.0, 0.0, 0.0, 0.0, 0.0, 0.0, 0.0, 0.0, 0.0, 0.0, 0.0, 0.0, 0.0, 0.0, 0.0], [0.0, 0.05558428128231644, 0.05351602895553258, 0.054033092037228544, 0.047569803516028956, 0.051964839710444674, 0.05506721820062047, 0.06075491209927611, 0.05558428128231644, 0.05635987590486039, 0.05351602895553258, 0.05429162357807653, 0.05558428128231644, 0.049896587383660804, 0.048086866597724924, 0.05842812823164426, 0.05222337125129266, 0.08169596690796277, 0.055842812823164424], [0.0, 0.0, 0.0, 0.0, 0.0, 0.0, 0.0, 0.5210643015521065, 0.0, 0.0, 0.0, 0.0, 0.0, 0.0, 0.0, 0.0, 0.0, 0.0, 0.4789356984478936], [0.0, 0.0, 0.0, 0.0, 0.0, 0.0, 0.0, 1.0, 0.0, 0.0, 0.0, 0.0, 0.0, 0.0, 0.0, 0.0, 0.0, 0.0, 0.0], [0.0, 0.0, 0.0, 0.0, 0.0, 0.0, 0.0, 0.0, 0.0, 0.0, 0.0, 0.0, 0.0, 0.0, 0.0, 0.0, 0.0, 0.0, 1.0], [0.0, 0.06292069066432543, 0.06057945566286216, 0.061164764413227976, 0.053848405033655254, 0.058823529411764705, 0.06233538191395961, 0.0, 0.06292069066432543, 0.06379865378987416, 0.06057945566286216, 0.061457418788410885, 0.06292069066432543, 0.056482294410301434, 0.05443371378402107, 0.06613988879133743, 0.059116183786947614, 0.09247878255779923, 0.0], [0.0, 0.0716427857380873, 0.06897700766411197, 0.0696434521826058, 0.061312895701432855, 0.0, 0.07097634121959347, 0.0, 0.0716427857380873, 0.07264245251582806, 0.06897700766411197, 0.06997667444185271, 0.0, 0.06431189603465512, 0.06197934021992669, 0.0753082305898034, 0.06731089636787738, 0.10529823392202599, 0.0], [0.0, 0.07656695156695156, 0.07371794871794872, 0.07443019943019943, 0.06552706552706553, 0.0, 0.07585470085470085, 0.0, 0.07656695156695156, 0.07763532763532764, 0.07371794871794872, 0.07478632478632478, 0.0, 0.0, 0.06623931623931624, 0.08048433048433049, 0.07193732193732194, 0.11253561253561253, 0.0], [0.0, 0.0, 0.0, 0.0, 0.0, 0.0, 0.0, 0.0, 0.004545454545454545, 0.0, 0.9363636363636364, 0.0, 0.0, 0.0, 0.0, 0.0, 0.0, 0.05909090909090909, 0.0], [0.0, 0.0, 0.0, 0.0, 0.0, 0.0, 0.0, 0.0, 0.07142857142857142, 0.0, 0.0, 0.0, 0.0, 0.0, 0.0, 0.0, 0.0, 0.9285714285714286, 0.0], [0.0, 0.0, 0.0, 0.0, 0.0, 0.0, 0.0, 0.0, 0.0, 0.0, 0.0, 0.0, 0.0, 0.0, 0.0, 0.0, 0.0, 1.0, 0.0], [0.0, 0.0, 0.0, 0.0, 0.0, 0.0, 0.0, 0.0, 1.0, 0.0, 0.0, 0.0, 0.0, 0.0, 0.0, 0.0, 0.0, 0.0, 0.0], [0.0, 0.0, 0.0, 0.0, 0.0, 0.0, 0.0, 0.0, 0.0, 0.0, 1.0, 0.0, 0.0, 0.0, 0.0, 0.0, 0.0, 0.0, 0.0], [0.0, 0.0830757341576507, 0.07998454404945904, 0.08075734157650695, 0.07109737248840804, 0.0, 0.08230293663060279, 0.0, 0.08268933539412673, 0.08423493044822257, 0.0003863987635239567, 0.08114374034003091, 0.0, 0.0, 0.07187017001545595, 0.08732612055641421, 0.07805255023183925, 0.11707882534775889, 0.0], [0.0, 0.09829257037378865, 0.09552376557452699, 0.0046146746654360865, 0.084910013844024, 0.0, 0.09644670050761421, 0.0, 0.09875403784033225, 0.0009229349330872173, 0.00046146746654360867, 0.09690816797415783, 0.0, 0.0, 0.08583294877711121, 0.10429164743885556, 0.09321642824180895, 0.13982464236271344, 0.0], [0.0, 0.33649289099526064, 0.32701421800947866, 0.0, 0.0, 0.0, 0.0, 0.0, 0.0, 0.0, 0.0, 0.3222748815165877, 0.0, 0.0, 0.0, 0.0, 0.0, 0.014218009478672985, 0.0], [0.0, 0.4707259953161593, 0.46604215456674475, 0.0, 0.0, 0.0, 0.0, 0.0, 0.0, 0.0, 0.0, 0.04215456674473068, 0.0, 0.0, 0.0, 0.0, 0.0, 0.02107728337236534, 0.0], [0.0, 0.06779661016949153, 0.8177966101694916, 0.0, 0.0, 0.0, 0.0, 0.0, 0.0, 0.0, 0.0, 0.07627118644067797, 0.0, 0.0, 0.0, 0.0, 0.0, 0.038135593220338986, 0.0], [0.0, 0.07017543859649122, 0.8464912280701754, 0.0, 0.0, 0.0, 0.0, 0.0, 0.0, 0.0, 0.0, 0.07894736842105263, 0.0, 0.0, 0.0, 0.0, 0.0, 0.0043859649122807015, 0.0], [0.0, 0.45714285714285713, 0.0, 0.0, 0.0, 0.0, 0.0, 0.0, 0.0, 0.0, 0.0, 0.5142857142857142, 0.0, 0.0, 0.0, 0.0, 0.0, 0.02857142857142857, 0.0], [0.0, 0.9411764705882353, 0.0, 0.0, 0.0, 0.0, 0.0, 0.0, 0.0, 0.0, 0.0, 0.0, 0.0, 0.0, 0.0, 0.0, 0.0, 0.058823529411764705, 0.0], [0.0, 0.0, 0.0, 0.0, 0.0, 0.0, 0.0, 0.0, 0.0, 0.0, 0.0, 0.0, 0.0, 0.0, 0.0, 0.0, 0.0, 1.0, 0.0], [0.0, 1.0, 0.0, 0.0, 0.0, 0.0, 0.0, 0.0, 0.0, 0.0, 0.0, 0.0, 0.0, 0.0, 0.0, 0.0, 0.0, 0.0, 0.0], [0.0, 0.0, 0.0, 0.0, 0.0, 0.0, 0.0, 0.0, 0.0, 0.0, 0.0, 1.0, 0.0, 0.0, 0.0, 0.0, 0.0, 0.0, 0.0], [0.0, 0.0, 1.0, 0.0, 0.0, 0.0, 0.0, 0.0, 0.0, 0.0, 0.0, 0.0, 0.0, 0.0, 0.0, 0.0, 0.0, 0.0, 0.0], [0.0, 0.0, 0.0, 0.0, 0.0, 0.0, 0.0, 0.0, 0.0, 0.0, 0.0, 0.0, 0.0, 0.0, 0.0, 0.0, 0.0, 1.0, 0.0], [0.0, 0.9685863874345549, 0.031413612565445025, 0.0, 0.0, 0.0, 0.0, 0.0, 0.0, 0.0, 0.0, 0.0, 0.0, 0.0, 0.0, 0.0, 0.0, 0.0, 0.0], [0.0, 0.9945945945945946, 0.005405405405405406, 0.0, 0.0, 0.0, 0.0, 0.0, 0.0, 0.0, 0.0, 0.0, 0.0, 0.0, 0.0, 0.0, 0.0, 0.0, 0.0], [0.0, 1.0, 0.0, 0.0, 0.0, 0.0, 0.0, 0.0, 0.0, 0.0, 0.0, 0.0, 0.0, 0.0, 0.0, 0.0, 0.0, 0.0, 0.0], [0.0, 0.0, 1.0, 0.0, 0.0, 0.0, 0.0, 0.0, 0.0, 0.0, 0.0, 0.0, 0.0, 0.0, 0.0, 0.0, 0.0, 0.0, 0.0], [0.0, 0.16666666666666666, 0.8333333333333334, 0.0, 0.0, 0.0, 0.0, 0.0, 0.0, 0.0, 0.0, 0.0, 0.0, 0.0, 0.0, 0.0, 0.0, 0.0, 0.0], [0.0, 1.0, 0.0, 0.0, 0.0, 0.0, 0.0, 0.0, 0.0, 0.0, 0.0, 0.0, 0.0, 0.0, 0.0, 0.0, 0.0, 0.0, 0.0], [0.0, 0.0, 1.0, 0.0, 0.0, 0.0, 0.0, 0.0, 0.0, 0.0, 0.0, 0.0, 0.0, 0.0, 0.0, 0.0, 0.0, 0.0, 0.0], [0.0, 0.05825242718446602, 0.038834951456310676, 0.0, 0.0, 0.0, 0.0, 0.0, 0.0, 0.0, 0.0, 0.9029126213592233, 0.0, 0.0, 0.0, 0.0, 0.0, 0.0, 0.0], [0.0, 0.0, 0.041237113402061855, 0.0, 0.0, 0.0, 0.0, 0.0, 0.0, 0.0, 0.0, 0.9587628865979382, 0.0, 0.0, 0.0, 0.0, 0.0, 0.0, 0.0], [0.0, 0.0, 0.0, 0.0, 0.0, 0.0, 0.0, 0.0, 0.0, 0.0, 0.0, 1.0, 0.0, 0.0, 0.0, 0.0, 0.0, 0.0, 0.0], [0.0, 0.0, 1.0, 0.0, 0.0, 0.0, 0.0, 0.0, 0.0, 0.0, 0.0, 0.0, 0.0, 0.0, 0.0, 0.0, 0.0, 0.0, 0.0], [0.0, 1.0, 0.0, 0.0, 0.0, 0.0, 0.0, 0.0, 0.0, 0.0, 0.0, 0.0, 0.0, 0.0, 0.0, 0.0, 0.0, 0.0, 0.0], [0.0, 0.0, 0.0, 0.00651890482398957, 0.11994784876140809, 0.0, 0.13624511082138202, 0.0, 0.1395045632333768, 0.001303780964797914, 0.000651890482398957, 0.003911342894393742, 0.0, 0.0, 0.121251629726206, 0.14732724902216426, 0.1316818774445893, 0.19165580182529335, 0.0], [0.0, 0.0, 0.0, 0.009900990099009901, 0.0, 0.0, 0.0, 0.0, 0.0, 0.0, 0.0, 0.0, 0.0, 0.0, 0.0, 0.0, 0.9900990099009901, 0.0, 0.0], [0.0, 0.0, 0.0, 0.0, 0.0, 0.0, 0.0, 0.0, 0.0, 0.0, 0.0, 0.0, 0.0, 0.0, 0.0, 0.0, 1.0, 0.0, 0.0], [0.0, 0.0, 0.0, 1.0, 0.0, 0.0, 0.0, 0.0, 0.0, 0.0, 0.0, 0.0, 0.0, 0.0, 0.0, 0.0, 0.0, 0.0, 0.0], [0.0, 0.0, 0.0, 0.006006006006006006, 0.13813813813813813, 0.0, 0.1569069069069069, 0.0, 0.16066066066066065, 0.0015015015015015015, 0.0007507507507507507, 0.0045045045045045045, 0.0, 0.0, 0.13963963963963963, 0.16966966966966968, 0.0015015015015015015, 0.22072072072072071, 0.0], [0.0, 0.0, 0.0, 0.006980802792321117, 0.16055846422338568, 0.0, 0.1823734729493892, 0.0, 0.18673647469458987, 0.0017452006980802793, 0.0008726003490401396, 0.005235602094240838, 0.0, 0.0, 0.0, 0.19720767888307156, 0.0017452006980802793, 0.25654450261780104, 0.0], [0.0, 0.0, 0.0, 0.0, 0.0, 0.0, 0.2190775681341719, 0.0, 0.22431865828092243, 0.0020964360587002098, 0.0010482180293501049, 0.006289308176100629, 0.0, 0.0, 0.0, 0.23689727463312368, 0.0020964360587002098, 0.3081761006289308, 0.0], [0.0, 0.0, 0.0, 0.0, 0.0, 0.0, 0.9855072463768116, 0.0, 0.0, 0.00966183574879227, 0.004830917874396135, 0.0, 0.0, 0.0, 0.0, 0.0, 0.0, 0.0, 0.0], [0.0, 0.0, 0.0, 0.0, 0.0, 0.0, 0.0, 0.0, 0.0, 0.6666666666666666, 0.3333333333333333, 0.0, 0.0, 0.0, 0.0, 0.0, 0.0, 0.0, 0.0], [0.0, 0.0, 0.0, 0.0, 0.0, 0.0, 0.0, 0.0, 0.0, 1.0, 0.0, 0.0, 0.0, 0.0, 0.0, 0.0, 0.0, 0.0, 0.0], [0.0, 0.0, 0.0, 0.0, 0.0, 0.0, 0.0, 0.0, 0.0, 0.0, 1.0, 0.0, 0.0, 0.0, 0.0, 0.0, 0.0, 0.0, 0.0], [0.0, 0.0, 0.0, 0.0, 0.0, 0.0, 1.0, 0.0, 0.0, 0.0, 0.0, 0.0, 0.0, 0.0, 0.0, 0.0, 0.0, 0.0, 0.0], [0.0, 0.0, 0.0, 0.0, 0.0, 0.0, 0.006693440428380187, 0.0, 0.28647925033467203, 0.0, 0.0, 0.008032128514056224, 0.0, 0.0, 0.0, 0.30254350736278446, 0.002677376171352075, 0.39357429718875503, 0.0], [0.0, 0.0, 0.0, 0.0, 0.0, 0.0, 0.009615384615384616, 0.0, 0.4115384615384615, 0.0, 0.0, 0.011538461538461539, 0.0, 0.0, 0.0, 0.0019230769230769232, 0.0038461538461538464, 0.5615384615384615, 0.0], [0.0, 0.0, 0.0, 0.0, 0.0, 0.0, 0.0, 0.0, 0.7754237288135594, 0.0, 0.0, 0.025423728813559324, 0.0, 0.0, 0.0, 0.00423728813559322, 0.0, 0.19491525423728814, 0.0], [0.0, 0.0, 0.0, 0.0, 0.0, 0.0, 0.0, 0.0, 0.0, 0.0, 0.0, 0.0, 0.0, 0.0, 0.0, 0.0, 0.0, 1.0, 0.0], [0.0, 0.0, 0.0, 0.0, 0.0, 0.0, 0.0, 0.0, 0.9432989690721649, 0.0, 0.0, 0.030927835051546393, 0.0, 0.0, 0.0, 0.005154639175257732, 0.0, 0.020618556701030927, 0.0], [0.0, 0.0, 0.0, 0.0, 0.0, 0.0, 0.0, 0.0, 1.0, 0.0, 0.0, 0.0, 0.0, 0.0, 0.0, 0.0, 0.0, 0.0, 0.0], [0.0, 0.0, 0.0, 0.0, 0.0, 0.0, 0.0, 0.0, 0.0, 0.0, 0.0, 0.5454545454545454, 0.0, 0.0, 0.0, 0.09090909090909091, 0.0, 0.36363636363636365, 0.0], [0.0, 0.0, 0.0, 0.0, 0.0, 0.0, 0.0, 0.0, 0.0, 0.0, 0.0, 0.0, 0.0, 0.0, 0.0, 0.2, 0.0, 0.8, 0.0], [0.0, 0.0, 0.0, 0.0, 0.0, 0.0, 0.0, 0.0, 0.0, 0.0, 0.0, 0.0, 0.0, 0.0, 0.0, 0.0, 0.0, 1.0, 0.0], [0.0, 0.0, 0.0, 0.0, 0.0, 0.0, 0.0, 0.0, 0.0, 0.0, 0.0, 0.0, 0.0, 0.0, 0.0, 1.0, 0.0, 0.0, 0.0], [0.0, 0.0, 0.0, 0.0, 0.0, 0.0, 0.0, 0.0, 0.0, 0.0, 0.0, 1.0, 0.0, 0.0, 0.0, 0.0, 0.0, 0.0, 0.0], [0.0, 0.0, 0.0, 0.0, 0.0, 0.0, 0.017605633802816902, 0.0, 0.10915492957746478, 0.0, 0.0, 0.0, 0.0, 0.0, 0.0, 0.0, 0.007042253521126761, 0.8661971830985915, 0.0], [0.0, 0.0, 0.0, 0.0, 0.0, 0.0, 0.020242914979757085, 0.0, 0.0, 0.0, 0.0, 0.0, 0.0, 0.0, 0.0, 0.0, 0.004048582995951417, 0.9757085020242915, 0.0], [0.0, 0.0, 0.0, 0.0, 0.0, 0.0, 0.012295081967213115, 0.0, 0.0, 0.0, 0.0, 0.0, 0.0, 0.0, 0.0, 0.0, 0.0, 0.9877049180327869, 0.0], [0.0, 0.0, 0.0, 0.0, 0.0, 0.0, 0.5, 0.0, 0.0, 0.0, 0.0, 0.0, 0.0, 0.0, 0.0, 0.0, 0.0, 0.5, 0.0], [0.0, 0.0, 0.0, 0.0, 0.0, 0.0, 0.0, 0.0, 0.0, 0.0, 0.0, 0.0, 0.0, 0.0, 0.0, 0.0, 0.0, 1.0, 0.0], [0.0, 0.0, 0.0, 0.0, 0.0, 0.0, 1.0, 0.0, 0.0, 0.0, 0.0, 0.0, 0.0, 0.0, 0.0, 0.0, 0.0, 0.0, 0.0], [0.0, 0.0, 0.0, 0.0, 0.0, 0.0, 0.0, 0.0, 0.0, 0.0, 0.0, 0.0, 0.0, 0.0, 0.0, 0.0, 0.0, 1.0, 0.0], [0.0, 0.0, 0.0, 0.0, 0.0, 0.0, 0.6666666666666666, 0.0, 0.0, 0.0, 0.0, 0.0, 0.0, 0.0, 0.0, 0.0, 0.3333333333333333, 0.0, 0.0], [0.0, 0.0, 0.0, 0.0, 0.0, 0.0, 0.0, 0.0, 0.0, 0.0, 0.0, 0.0, 0.0, 0.0, 0.0, 0.0, 1.0, 0.0, 0.0], [0.0, 0.0, 0.0, 0.0, 0.0, 0.0, 1.0, 0.0, 0.0, 0.0, 0.0, 0.0, 0.0, 0.0, 0.0, 0.0, 0.0, 0.0, 0.0], [0.0, 0.0, 0.0, 0.0, 0.0, 0.0, 0.0, 0.0, 0.8378378378378378, 0.0, 0.0, 0.0, 0.0, 0.0, 0.0, 0.0, 0.02702702702702703, 0.13513513513513514, 0.0], [0.0, 0.0, 0.0, 0.0, 0.0, 0.0, 0.0, 0.0, 0.0, 0.0, 0.0, 0.0, 0.0, 0.0, 0.0, 0.0, 0.16666666666666666, 0.8333333333333334, 0.0], [0.0, 0.0, 0.0, 0.0, 0.0, 0.0, 0.0, 0.0, 0.0, 0.0, 0.0, 0.0, 0.0, 0.0, 0.0, 0.0, 0.0, 1.0, 0.0], [0.0, 0.0, 0.0, 0.0, 0.0, 0.0, 0.0, 0.0, 0.0, 0.0, 0.0, 0.0, 0.0, 0.0, 0.0, 0.0, 1.0, 0.0, 0.0], [0.0, 0.0, 0.0, 0.0, 0.0, 0.0, 0.0, 0.0, 1.0, 0.0, 0.0, 0.0, 0.0, 0.0, 0.0, 0.0, 0.0, 0.0, 0.0], [0.0, 0.0, 0.0, 0.0, 0.0, 0.0, 0.0, 0.0, 0.0, 0.0, 0.0, 0.0, 0.0, 0.0, 0.0, 0.9911894273127754, 0.0, 0.00881057268722467, 0.0], [0.0, 0.0, 0.0, 0.0, 0.0, 0.0, 0.0, 0.0, 0.0, 0.0, 0.0, 0.0, 0.0, 0.0, 0.0, 0.0, 0.0, 1.0, 0.0], [0.0, 0.0, 0.0, 0.0, 0.0, 0.0, 0.0, 0.0, 0.0, 0.0, 0.0, 0.0, 0.0, 0.0, 0.0, 1.0, 0.0, 0.0, 0.0], [0.0, 0.0, 0.0, 0.041666666666666664, 0.9583333333333334, 0.0, 0.0, 0.0, 0.0, 0.0, 0.0, 0.0, 0.0, 0.0, 0.0, 0.0, 0.0, 0.0, 0.0], [0.0, 0.0, 0.0, 1.0, 0.0, 0.0, 0.0, 0.0, 0.0, 0.0, 0.0, 0.0, 0.0, 0.0, 0.0, 0.0, 0.0, 0.0, 0.0], [0.0, 0.0, 0.0, 0.0, 1.0, 0.0, 0.0, 0.0, 0.0, 0.0, 0.0, 0.0, 0.0, 0.0, 0.0, 0.0, 0.0, 0.0, 0.0], [0.0, 0.0, 0.0, 0.0, 0.0, 0.0, 0.0, 0.0, 0.0, 0.0, 0.0, 0.0, 0.0, 0.0, 1.0, 0.0, 0.0, 0.0, 0.0], [0.0, 0.004750593824228029, 0.0, 0.47268408551068886, 0.0, 0.0, 0.009501187648456057, 0.0, 0.0, 0.5130641330166271, 0.0, 0.0, 0.0, 0.0, 0.0, 0.0, 0.0, 0.0, 0.0], [0.0, 0.009523809523809525, 0.0, 0.9428571428571428, 0.0, 0.0, 0.0, 0.0, 0.0, 0.047619047619047616, 0.0, 0.0, 0.0, 0.0, 0.0, 0.0, 0.0, 0.0, 0.0], [0.0, 0.0, 0.0, 0.0, 0.0, 0.0, 0.0, 0.0, 0.0, 1.0, 0.0, 0.0, 0.0, 0.0, 0.0, 0.0, 0.0, 0.0, 0.0], [0.0, 0.01, 0.0, 0.99, 0.0, 0.0, 0.0, 0.0, 0.0, 0.0, 0.0, 0.0, 0.0, 0.0, 0.0, 0.0, 0.0, 0.0, 0.0], [0.0, 0.0, 0.0, 1.0, 0.0, 0.0, 0.0, 0.0, 0.0, 0.0, 0.0, 0.0, 0.0, 0.0, 0.0, 0.0, 0.0, 0.0, 0.0], [0.0, 1.0, 0.0, 0.0, 0.0, 0.0, 0.0, 0.0, 0.0, 0.0, 0.0, 0.0, 0.0, 0.0, 0.0, 0.0, 0.0, 0.0, 0.0], [0.0, 0.0, 0.0, 0.004739336492890996, 0.0, 0.0, 0.018957345971563982, 0.0, 0.0, 0.976303317535545, 0.0, 0.0, 0.0, 0.0, 0.0, 0.0, 0.0, 0.0, 0.0], [0.0, 0.0, 0.0, 0.004830917874396135, 0.0, 0.0, 0.0, 0.0, 0.0, 0.9951690821256038, 0.0, 0.0, 0.0, 0.0, 0.0, 0.0, 0.0, 0.0, 0.0], [0.0, 0.0, 0.0, 0.0, 0.0, 0.0, 0.0, 0.0, 0.0, 1.0, 0.0, 0.0, 0.0, 0.0, 0.0, 0.0, 0.0, 0.0, 0.0], [0.0, 0.0, 0.0, 1.0, 0.0, 0.0, 0.0, 0.0, 0.0, 0.0, 0.0, 0.0, 0.0, 0.0, 0.0, 0.0, 0.0, 0.0, 0.0], [0.0, 0.0, 0.0, 0.0, 0.0, 0.0, 1.0, 0.0, 0.0, 0.0, 0.0, 0.0, 0.0, 0.0, 0.0, 0.0, 0.0, 0.0, 0.0], [0.0, 0.0, 0.0, 0.0, 0.0, 0.0, 0.0, 0.0, 0.0, 0.0, 0.0, 0.0, 0.0, 1.0, 0.0, 0.0, 0.0, 0.0, 0.0], [0.0, 0.0, 0.0, 0.0, 0.0, 0.4831730769230769, 0.0, 0.0, 0.0, 0.0, 0.0, 0.0, 0.5168269230769231, 0.0, 0.0, 0.0, 0.0, 0.0, 0.0], [0.0, 0.0, 0.0, 0.0, 0.0, 0.013761467889908258, 0.0, 0.0, 0.0, 0.0, 0.0, 0.0, 0.9862385321100917, 0.0, 0.0, 0.0, 0.0, 0.0, 0.0], [0.0, 0.0, 0.0, 0.0, 0.0, 0.0, 0.0, 0.0, 0.0, 0.0, 0.0, 0.0, 1.0, 0.0, 0.0, 0.0, 0.0, 0.0, 0.0], [0.0, 0.0, 0.0, 0.0, 0.0, 1.0, 0.0, 0.0, 0.0, 0.0, 0.0, 0.0, 0.0, 0.0, 0.0, 0.0, 0.0, 0.0, 0.0], [0.0, 0.0, 0.0, 0.0, 0.0, 1.0, 0.0, 0.0, 0.0, 0.0, 0.0, 0.0, 0.0, 0.0, 0.0, 0.0, 0.0, 0.0, 0.0]]}, {"feature": [41, 66, 63, 16, 69, 66, 56, -2, -2, 61, 67, 35, 64, -2, -2, 75, 65, 81, -2, 78, 76, -2, 40, -2, -2, -2, 76, 28, -2, -2, 50, -2, -2, 37, 59, 72, -2, 72, -2, -2, -2, 67, -2, 21, -2, -2, 74, -2, -2, 10, -2, -2, 43, -2, 20, -2, -2, 64, -2, -2, 78, -2, 70, 74, -2, 55, -2, -2, -2, 50, -2, -2, -2], "threshold": [0.3559834212064743, 1.07121080160141, 0.654572993516922, 0.5966829061508179, 0.7878373265266418, 0.10438957437872887, 0.07551798038184643, -2.0, -2.0, 0.8643657565116882, 0.518909215927124, -0.2968534678220749, 0.4104147255420685, -2.0, -2.0, 2.9248509407043457, 0.5908370018005371, 0.7934086322784424, -2.0, 1.5390437841415405, 2.5176889896392822, -2.0, 0.45415009558200836, -2.0, -2.0, -2.0, 2.8273487091064453, 0.5875610709190369, -2.0, -2.0, 0.1610211879014969, -2.0, -2.0, 0.9335818886756897, 0.14422667026519775, 0.13975583761930466, -2.0, 0.2891889438033104, -2.0, -2.0, -2.0, 0.16577675193548203, -2.0, -0.10738827846944332, -2.0, -2.0, 2.5331313610076904, -2.0, -2.0, 0.43812765181064606, -2.0, -2.0, 0.5370751172304153, -2.0, 0.2493322193622589, -2.0, -2.0, 0.24786275625228882, -2.0, -2.0, 0.9400554001331329, -2.0, 0.4099027216434479, 1.371892273426056, -2.0, 0.5739213526248932, -2.0, -2.0, -2.0, -0.25880854576826096, -2.0, -2.0, -2.0], "children_left": [1, 2, 3, 4, 5, 6, 7, -1, -1, 10, 11, 12, 13, -1, -1, 16, 17, 18, -1, 20, 21, -1, 23, -1, -1, -1, 27, 28, -1, -1, 31, -1, -1, 34, 35, 36, -1, 38, -1, -1, -1, 42, -1, 44, -1, -1, 47, -1, -1, 50, -1, -1, 53, -1, 55, -1, -1, 58, -1, -1, 61, -1, 63, 64, -1, 66, -1, -1, -1, 70, -1, -1, -1], "children_right": [72, 69, 60, 57, 52, 9, 8, -1, -1, 49, 46, 15, 14, -1, -1, 33, 26, 19, -1, 25, 22, -1, 24, -1, -1, -1, 30, 29, -1, -1, 32, -1, -1, 41, 40, 37, -1, 39, -1, -1, -1, 43, -1, 45, -1, -1, 48, -1, -1, 51, -1, -1, 54, -1, 56, -1, -1, 59, -1, -1, 62, -1, 68, 65, -1, 67, -1, -1, -1, 71, -1, -1, -1], "value": [[0.05522827687776141, 0.05768286696121748, 0.053019145802650956, 0.04786450662739323, 0.0586647029945999, 0.05915562101129111, 0.049091801669121256, 0.051055473735886106, 0.054982817869415807, 0.0547373588610702, 0.04540991654393716, 0.050073637702503684, 0.04835542464408444, 0.05351006381934217, 0.047619047619047616, 0.05154639175257732, 0.055964653902798235, 0.05964653902798233, 0.04639175257731959], [0.058350622406639005, 0.060943983402489625, 0.056016597510373446, 0.05057053941908714, 0.06198132780082988, 0.0625, 0.05186721991701245, 0.05394190871369295, 0.058091286307053944, 0.05783195020746888, 0.04797717842323652, 0.052904564315352696, 0.05108921161825726, 0.0, 0.050311203319502076, 0.05446058091286307, 0.05912863070539419, 0.06301867219917012, 0.04901452282157676], [0.06582796957284962, 0.06875365710942072, 0.06319485078993564, 0.05705090696313634, 0.06992393212404915, 0.0, 0.058513750731421885, 0.060854300760678756, 0.06553540081919251, 0.0652428320655354, 0.054125219426565244, 0.05968402574605032, 0.0, 0.0, 0.05675833820947923, 0.06143943826799298, 0.06670567583382095, 0.07109420713867759, 0.05529549444119368], [0.0, 0.0008543357539513029, 0.0922682614267407, 0.0, 0.0, 0.0, 0.08543357539513029, 0.0888509184109355, 0.09568560444254592, 0.09525843656557027, 0.0, 0.08714224690303289, 0.0, 0.0, 0.08287056813327638, 0.0897052541648868, 0.09739427595044853, 0.10380179410508329, 0.08073472874839813], [0.0, 0.001038961038961039, 0.11220779220779221, 0.0, 0.0, 0.0, 0.1038961038961039, 0.0005194805194805195, 0.11636363636363636, 0.007272727272727273, 0.0, 0.10597402597402597, 0.0, 0.0, 0.10077922077922077, 0.10909090909090909, 0.11844155844155844, 0.12623376623376623, 0.09818181818181818], [0.0, 0.0, 0.0, 0.0, 0.0, 0.0, 0.11764705882352941, 0.000588235294117647, 0.13176470588235295, 0.00823529411764706, 0.0, 0.12, 0.0, 0.0, 0.11411764705882353, 0.12352941176470589, 0.13411764705882354, 0.1388235294117647, 0.1111764705882353], [0.0, 0.0, 0.0, 0.0, 0.0, 0.0, 0.0, 0.005263157894736842, 0.0, 0.0, 0.0, 0.0, 0.0, 0.0, 0.0, 0.0, 0.0, 0.0, 0.9947368421052631], [0.0, 0.0, 0.0, 0.0, 0.0, 0.0, 0.0, 0.0, 0.0, 0.0, 0.0, 0.0, 0.0, 0.0, 0.0, 0.0, 0.0, 0.0, 1.0], [0.0, 0.0, 0.0, 0.0, 0.0, 0.0, 0.0, 1.0, 0.0, 0.0, 0.0, 0.0, 0.0, 0.0, 0.0, 0.0, 0.0, 0.0, 0.0], [0.0, 0.0, 0.0, 0.0, 0.0, 0.0, 0.13245033112582782, 0.0, 0.14834437086092717, 0.009271523178807948, 0.0, 0.13509933774834437, 0.0, 0.0, 0.12847682119205298, 0.1390728476821192, 0.1509933774834437, 0.1562913907284768, 0.0], [0.0, 0.0, 0.0, 0.0, 0.0, 0.0, 0.15186028853454822, 0.0, 0.170083523158694, 0.010630220197418374, 0.0, 0.1548974943052392, 0.0, 0.0, 0.14730447987851178, 0.01366742596810934, 0.17312072892938496, 0.17843583902809415, 0.0], [0.0, 0.0, 0.0, 0.0, 0.0, 0.0, 0.2249718785151856, 0.0, 0.0, 0.015748031496062992, 0.0, 0.0, 0.0, 0.0, 0.21822272215973004, 0.020247469066366704, 0.25646794150731156, 0.2643419572553431, 0.0], [0.0, 0.0, 0.0, 0.0, 0.0, 0.0, 0.9797979797979798, 0.0, 0.0, 0.0, 0.0, 0.0, 0.0, 0.0, 0.0, 0.0, 0.020202020202020204, 0.0, 0.0], [0.0, 0.0, 0.0, 0.0, 0.0, 0.0, 0.0, 0.0, 0.0, 0.0, 0.0, 0.0, 0.0, 0.0, 0.0, 0.0, 1.0, 0.0, 0.0], [0.0, 0.0, 0.0, 0.0, 0.0, 0.0, 1.0, 0.0, 0.0, 0.0, 0.0, 0.0, 0.0, 0.0, 0.0, 0.0, 0.0, 0.0, 0.0], [0.0, 0.0, 0.0, 0.0, 0.0, 0.0, 0.008683068017366137, 0.0, 0.0, 0.020260492040520984, 0.0, 0.0, 0.0, 0.0, 0.28075253256150506, 0.02604920405209841, 0.32416787264833574, 0.34008683068017365, 0.0], [0.0, 0.0, 0.0, 0.0, 0.0, 0.0, 0.006342494714587738, 0.0, 0.0, 0.02959830866807611, 0.0, 0.0, 0.0, 0.0, 0.0021141649048625794, 0.010570824524312896, 0.47357293868921774, 0.47780126849894294, 0.0], [0.0, 0.0, 0.0, 0.0, 0.0, 0.0, 0.003424657534246575, 0.0, 0.0, 0.04794520547945205, 0.0, 0.0, 0.0, 0.0, 0.0, 0.003424657534246575, 0.7671232876712328, 0.1780821917808219, 0.0], [0.0, 0.0, 0.0, 0.0, 0.0, 0.0, 0.0, 0.0, 0.0, 0.0, 0.0, 0.0, 0.0, 0.0, 0.0, 0.0, 0.0, 1.0, 0.0], [0.0, 0.0, 0.0, 0.0, 0.0, 0.0, 0.004166666666666667, 0.0, 0.0, 0.058333333333333334, 0.0, 0.0, 0.0, 0.0, 0.0, 0.004166666666666667, 0.9333333333333333, 0.0, 0.0], [0.0, 0.0, 0.0, 0.0, 0.0, 0.0, 0.004424778761061947, 0.0, 0.0, 0.0, 0.0, 0.0, 0.0, 0.0, 0.0, 0.004424778761061947, 0.9911504424778761, 0.0, 0.0], [0.0, 0.0, 0.0, 0.0, 0.0, 0.0, 0.0, 0.0, 0.0, 0.0, 0.0, 0.0, 0.0, 0.0, 0.0, 0.0, 1.0, 0.0, 0.0], [0.0, 0.0, 0.0, 0.0, 0.0, 0.0, 0.5, 0.0, 0.0, 0.0, 0.0, 0.0, 0.0, 0.0, 0.0, 0.5, 0.0, 0.0, 0.0], [0.0, 0.0, 0.0, 0.0, 0.0, 0.0, 0.0, 0.0, 0.0, 0.0, 0.0, 0.0, 0.0, 0.0, 0.0, 1.0, 0.0, 0.0, 0.0], [0.0, 0.0, 0.0, 0.0, 0.0, 0.0, 1.0, 0.0, 0.0, 0.0, 0.0, 0.0, 0.0, 0.0, 0.0, 0.0, 0.0, 0.0, 0.0], [0.0, 0.0, 0.0, 0.0, 0.0, 0.0, 0.0, 0.0, 0.0, 1.0, 0.0, 0.0, 0.0, 0.0, 0.0, 0.0, 0.0, 0.0, 0.0], [0.0, 0.0, 0.0, 0.0, 0.0, 0.0, 0.011049723756906077, 0.0, 0.0, 0.0, 0.0, 0.0, 0.0, 0.0, 0.0055248618784530384, 0.022099447513812154, 0.0, 0.9613259668508287, 0.0], [0.0, 0.0, 0.0, 0.0, 0.0, 0.0, 0.011363636363636364, 0.0, 0.0, 0.0, 0.0, 0.0, 0.0, 0.0, 0.0, 0.0, 0.0, 0.9886363636363636, 0.0], [0.0, 0.0, 0.0, 0.0, 0.0, 0.0, 0.0, 0.0, 0.0, 0.0, 0.0, 0.0, 0.0, 0.0, 0.0, 0.0, 0.0, 1.0, 0.0], [0.0, 0.0, 0.0, 0.0, 0.0, 0.0, 1.0, 0.0, 0.0, 0.0, 0.0, 0.0, 0.0, 0.0, 0.0, 0.0, 0.0, 0.0, 0.0], [0.0, 0.0, 0.0, 0.0, 0.0, 0.0, 0.0, 0.0, 0.0, 0.0, 0.0, 0.0, 0.0, 0.0, 0.2, 0.8, 0.0, 0.0, 0.0], [0.0, 0.0, 0.0, 0.0, 0.0, 0.0, 0.0, 0.0, 0.0, 0.0, 0.0, 0.0, 0.0, 0.0, 1.0, 0.0, 0.0, 0.0, 0.0], [0.0, 0.0, 0.0, 0.0, 0.0, 0.0, 0.0, 0.0, 0.0, 0.0, 0.0, 0.0, 0.0, 0.0, 0.0, 1.0, 0.0, 0.0, 0.0], [0.0, 0.0, 0.0, 0.0, 0.0, 0.0, 0.013761467889908258, 0.0, 0.0, 0.0, 0.0, 0.0, 0.0, 0.0, 0.8853211009174312, 0.05963302752293578, 0.0, 0.04128440366972477, 0.0], [0.0, 0.0, 0.0, 0.0, 0.0, 0.0, 0.125, 0.0, 0.0, 0.0, 0.0, 0.0, 0.0, 0.0, 0.08333333333333333, 0.4583333333333333, 0.0, 0.3333333333333333, 0.0], [0.0, 0.0, 0.0, 0.0, 0.0, 0.0, 0.23076923076923078, 0.0, 0.0, 0.0, 0.0, 0.0, 0.0, 0.0, 0.15384615384615385, 0.0, 0.0, 0.6153846153846154, 0.0], [0.0, 0.0, 0.0, 0.0, 0.0, 0.0, 0.0, 0.0, 0.0, 0.0, 0.0, 0.0, 0.0, 0.0, 0.0, 0.0, 0.0, 1.0, 0.0], [0.0, 0.0, 0.0, 0.0, 0.0, 0.0, 0.6, 0.0, 0.0, 0.0, 0.0, 0.0, 0.0, 0.0, 0.4, 0.0, 0.0, 0.0, 0.0], [0.0, 0.0, 0.0, 0.0, 0.0, 0.0, 1.0, 0.0, 0.0, 0.0, 0.0, 0.0, 0.0, 0.0, 0.0, 0.0, 0.0, 0.0, 0.0], [0.0, 0.0, 0.0, 0.0, 0.0, 0.0, 0.0, 0.0, 0.0, 0.0, 0.0, 0.0, 0.0, 0.0, 1.0, 0.0, 0.0, 0.0, 0.0], [0.0, 0.0, 0.0, 0.0, 0.0, 0.0, 0.0, 0.0, 0.0, 0.0, 0.0, 0.0, 0.0, 0.0, 0.0, 1.0, 0.0, 0.0, 0.0], [0.0, 0.0, 0.0, 0.0, 0.0, 0.0, 0.0, 0.0, 0.0, 0.0, 0.0, 0.0, 0.0, 0.0, 0.9845360824742269, 0.010309278350515464, 0.0, 0.005154639175257732, 0.0], [0.0, 0.0, 0.0, 0.0, 0.0, 0.0, 0.0, 0.0, 0.0, 0.0, 0.0, 0.0, 0.0, 0.0, 0.0, 1.0, 0.0, 0.0, 0.0], [0.0, 0.0, 0.0, 0.0, 0.0, 0.0, 0.0, 0.0, 0.0, 0.0, 0.0, 0.0, 0.0, 0.0, 0.9947916666666666, 0.0, 0.0, 0.005208333333333333, 0.0], [0.0, 0.0, 0.0, 0.0, 0.0, 0.0, 0.0, 0.0, 0.0, 0.0, 0.0, 0.0, 0.0, 0.0, 0.0, 0.0, 0.0, 1.0, 0.0], [0.0, 0.0, 0.0, 0.0, 0.0, 0.0, 0.0, 0.0, 0.0, 0.0, 0.0, 0.0, 0.0, 0.0, 1.0, 0.0, 0.0, 0.0, 0.0], [0.0, 0.0, 0.0, 0.0, 0.0, 0.0, 0.0, 0.0, 0.5233644859813084, 0.0, 0.0, 0.4766355140186916, 0.0, 0.0, 0.0, 0.0, 0.0, 0.0, 0.0], [0.0, 0.0, 0.0, 0.0, 0.0, 0.0, 0.0, 0.0, 0.0, 0.0, 0.0, 1.0, 0.0, 0.0, 0.0, 0.0, 0.0, 0.0, 0.0], [0.0, 0.0, 0.0, 0.0, 0.0, 0.0, 0.0, 0.0, 1.0, 0.0, 0.0, 0.0, 0.0, 0.0, 0.0, 0.0, 0.0, 0.0, 0.0], [0.0, 0.0, 0.0, 0.0, 0.0, 0.0, 0.0, 0.0, 0.0, 0.0, 0.0, 0.0, 0.0, 0.0, 0.0, 0.9948186528497409, 0.0, 0.0051813471502590676, 0.0], [0.0, 0.0, 0.0, 0.0, 0.0, 0.0, 0.0, 0.0, 0.0, 0.0, 0.0, 0.0, 0.0, 0.0, 0.0, 1.0, 0.0, 0.0, 0.0], [0.0, 0.0, 0.0, 0.0, 0.0, 0.0, 0.0, 0.0, 0.0, 0.0, 0.0, 0.0, 0.0, 0.0, 0.0, 0.0, 0.0, 1.0, 0.0], [0.0, 0.008888888888888889, 0.96, 0.0, 0.0, 0.0, 0.0, 0.0, 0.0, 0.0, 0.0, 0.0, 0.0, 0.0, 0.0, 0.0, 0.0, 0.03111111111111111, 0.0], [0.0, 0.0, 0.0, 0.0, 0.0, 0.0, 0.0, 0.0, 0.0, 0.0, 0.0, 0.0, 0.0, 0.0, 0.0, 0.0, 0.0, 1.0, 0.0], [0.0, 0.009174311926605505, 0.9908256880733946, 0.0, 0.0, 0.0, 0.0, 0.0, 0.0, 0.0, 0.0, 0.0, 0.0, 0.0, 0.0, 0.0, 0.0, 0.0, 0.0], [0.0, 0.0, 1.0, 0.0, 0.0, 0.0, 0.0, 0.0, 0.0, 0.0, 0.0, 0.0, 0.0, 0.0, 0.0, 0.0, 0.0, 0.0, 0.0], [0.0, 1.0, 0.0, 0.0, 0.0, 0.0, 0.0, 0.0, 0.0, 0.0, 0.0, 0.0, 0.0, 0.0, 0.0, 0.0, 0.0, 0.0, 0.0], [0.0, 0.0, 0.0, 0.0, 0.0, 0.0, 0.0, 0.49759615384615385, 0.0, 0.5024038461538461, 0.0, 0.0, 0.0, 0.0, 0.0, 0.0, 0.0, 0.0, 0.0], [0.0, 0.0, 0.0, 0.0, 0.0, 0.0, 0.0, 1.0, 0.0, 0.0, 0.0, 0.0, 0.0, 0.0, 0.0, 0.0, 0.0, 0.0, 0.0], [0.0, 0.0, 0.0, 0.0, 0.0, 0.0, 0.0, 0.0, 0.0, 1.0, 0.0, 0.0, 0.0, 0.0, 0.0, 0.0, 0.0, 0.0, 0.0], [0.20891364902506965, 0.21634168987929434, 0.0, 0.181058495821727, 0.22191272051996286, 0.0, 0.0, 0.0, 0.0, 0.0, 0.17177344475394615, 0.0, 0.0, 0.0, 0.0, 0.0, 0.0, 0.0, 0.0], [0.0, 1.0, 0.0, 0.0, 0.0, 0.0, 0.0, 0.0, 0.0, 0.0, 0.0, 0.0, 0.0, 0.0, 0.0, 0.0, 0.0, 0.0, 0.0], [0.2665876777251185, 0.0, 0.0, 0.23104265402843602, 0.283175355450237, 0.0, 0.0, 0.0, 0.0, 0.0, 0.21919431279620852, 0.0, 0.0, 0.0, 0.0, 0.0, 0.0, 0.0, 0.0], [0.371900826446281, 0.0, 0.0, 0.32231404958677684, 0.0, 0.0, 0.0, 0.0, 0.0, 0.0, 0.30578512396694213, 0.0, 0.0, 0.0, 0.0, 0.0, 0.0, 0.0, 0.0], [1.0, 0.0, 0.0, 0.0, 0.0, 0.0, 0.0, 0.0, 0.0, 0.0, 0.0, 0.0, 0.0, 0.0, 0.0, 0.0, 0.0, 0.0, 0.0], [0.0, 0.0, 0.0, 0.5131578947368421, 0.0, 0.0, 0.0, 0.0, 0.0, 0.0, 0.4868421052631579, 0.0, 0.0, 0.0, 0.0, 0.0, 0.0, 0.0, 0.0], [0.0, 0.0, 0.0, 0.0, 0.0, 0.0, 0.0, 0.0, 0.0, 0.0, 1.0, 0.0, 0.0, 0.0, 0.0, 0.0, 0.0, 0.0, 0.0], [0.0, 0.0, 0.0, 1.0, 0.0, 0.0, 0.0, 0.0, 0.0, 0.0, 0.0, 0.0, 0.0, 0.0, 0.0, 0.0, 0.0, 0.0, 0.0], [0.0, 0.0, 0.0, 0.0, 1.0, 0.0, 0.0, 0.0, 0.0, 0.0, 0.0, 0.0, 0.0, 0.0, 0.0, 0.0, 0.0, 0.0, 0.0], [0.0, 0.0, 0.0, 0.0, 0.0, 0.5502283105022832, 0.0, 0.0, 0.0, 0.0, 0.0, 0.0, 0.4497716894977169, 0.0, 0.0, 0.0, 0.0, 0.0, 0.0], [0.0, 0.0, 0.0, 0.0, 0.0, 0.0, 0.0, 0.0, 0.0, 0.0, 0.0, 0.0, 1.0, 0.0, 0.0, 0.0, 0.0, 0.0, 0.0], [0.0, 0.0, 0.0, 0.0, 0.0, 1.0, 0.0, 0.0, 0.0, 0.0, 0.0, 0.0, 0.0, 0.0, 0.0, 0.0, 0.0, 0.0, 0.0], [0.0, 0.0, 0.0, 0.0, 0.0, 0.0, 0.0, 0.0, 0.0, 0.0, 0.0, 0.0, 0.0, 1.0, 0.0, 0.0, 0.0, 0.0, 0.0]]}, {"feature": [65, 66, 55, 30, -2, -2, -2, 59, 28, 19, 71, 26, 81, -2, 50, -2, 20, -2, 81, 53, -2, -2, 6, -2, -2, 31, 69, -2, -2, 34, -2, 65, 31, -2, -2, -2, 29, 69, 35, -2, -2, 17, -2, -2, 68, 26, 77, 79, 39, 65, 61, -2, 78, -2, -2, -2, 43, -2, 20, -2, -2, 20, 16, -2, -2, -2, 33, -2, -2, 64, 72, 54, 14, 26, -2, -2, -2, -2, -2, 17, -2, -2, 12, 14, -2, 20, -2, -2, -2, 75, 49, -2, -2, -2, 74, -2, 13, 80, 81, -2, 38, -2, -2, -2, 63, 26, 62, 19, -2, -2, -2, -2, -2, -2, 10, 85, -2, 76, -2, -2, -2], "threshold": [0.8125507831573486, 0.12413332238793373, 0.6071727573871613, 0.4469754099845886, -2.0, -2.0, -2.0, 0.4984762966632843, 0.6270691454410553, 0.7941913902759552, 0.1899949237704277, 0.3620762825012207, 0.7208028435707092, -2.0, -0.3165833055973053, -2.0, -0.4395474046468735, -2.0, 1.7103123664855957, -0.05317023769021034, -2.0, -2.0, 0.22900059819221497, -2.0, -2.0, 0.7456214725971222, 0.7941324412822723, -2.0, -2.0, 0.7352153956890106, -2.0, 0.36456651985645294, 0.7745902836322784, -2.0, -2.0, -2.0, -0.15022588521242142, 0.36817125976085663, -0.2543899416923523, -2.0, -2.0, -0.15412712469696999, -2.0, -2.0, 0.6999191045761108, 0.08845670148730278, 2.547206163406372, 1.6236878633499146, 0.026826582849025726, 0.4816393703222275, 0.4411731958389282, -2.0, 0.9885162711143494, -2.0, -2.0, -2.0, 0.5833485424518585, -2.0, -0.01020239107310772, -2.0, -2.0, -0.2148275002837181, 0.5112802684307098, -2.0, -2.0, -2.0, -0.05026646517217159, -2.0, -2.0, 0.6445867717266083, 0.2921018600463867, -0.1225251629948616, 0.1359440628439188, 0.18451188504695892, -2.0, -2.0, -2.0, -2.0, -2.0, -0.0001637004315853119, -2.0, -2.0, 0.4454980790615082, -0.11725693382322788, -2.0, 0.17164636123925447, -2.0, -2.0, -2.0, 2.7905467748641968, 0.7747973799705505, -2.0, -2.0, -2.0, 1.3808555006980896, -2.0, 0.7179683744907379, 1.4774575233459473, 0.743840754032135, -2.0, 0.30103619769215584, -2.0, -2.0, -2.0, 0.8239573836326599, 0.25757756270468235, 0.06728854775428772, 0.7864936292171478, -2.0, -2.0, -2.0, -2.0, -2.0, -2.0, 0.40217946469783783, -0.09922345727682114, -2.0, 2.4925718307495117, -2.0, -2.0, -2.0], "children_left": [1, 2, 3, 4, -1, -1, -1, 8, 9, 10, 11, 12, 13, -1, 15, -1, 17, -1, 19, 20, -1, -1, 23, -1, -1, 26, 27, -1, -1, 30, -1, 32, 33, -1, -1, -1, 37, 38, 39, -1, -1, 42, -1, -1, 45, 46, 47, 48, 49, 50, 51, -1, 53, -1, -1, -1, 57, -1, 59, -1, -1, 62, 63, -1, -1, -1, 67, -1, -1, 70, 71, 72, 73, 74, -1, -1, -1, -1, -1, 80, -1, -1, 83, 84, -1, 86, -1, -1, -1, 90, 91, -1, -1, -1, 95, -1, 97, 98, 99, -1, 101, -1, -1, -1, 105, 106, 107, 108, -1, -1, -1, -1, -1, -1, 115, 116, -1, 118, -1, -1, -1], "children_right": [114, 7, 6, 5, -1, -1, -1, 113, 94, 89, 36, 25, 14, -1, 16, -1, 18, -1, 22, 21, -1, -1, 24, -1, -1, 29, 28, -1, -1, 31, -1, 35, 34, -1, -1, -1, 44, 41, 40, -1, -1, 43, -1, -1, 82, 69, 66, 61, 56, 55, 52, -1, 54, -1, -1, -1, 58, -1, 60, -1, -1, 65, 64, -1, -1, -1, 68, -1, -1, 79, 78, 77, 76, 75, -1, -1, -1, -1, -1, 81, -1, -1, 88, 85, -1, 87, -1, -1, -1, 93, 92, -1, -1, -1, 96, -1, 104, 103, 100, -1, 102, -1, -1, -1, 112, 111, 110, 109, -1, -1, -1, -1, -1, -1, 120, 117, -1, 119, -1, -1, -1], "value": [[0.047128129602356406, 0.05694648993618066, 0.048109965635738834, 0.0468826705940108, 0.046637211585665195, 0.046637211585665195, 0.054982817869415807, 0.05670103092783505, 0.05326460481099656, 0.05670103092783505, 0.050564555719194895, 0.0547373588610702, 0.05375552282768778, 0.046637211585665195, 0.050073637702503684, 0.044182621502209134, 0.056455571919489446, 0.07756504663721159, 0.052037309769268535], [0.05555555555555555, 0.06712962962962964, 0.056712962962962965, 0.055266203703703706, 0.054108796296296294, 0.0, 0.06481481481481481, 0.06684027777777778, 0.06278935185185185, 0.06684027777777778, 0.0, 0.06452546296296297, 0.0, 0.05497685185185185, 0.059027777777777776, 0.052083333333333336, 0.06655092592592593, 0.09143518518518519, 0.061342592592592594], [0.0, 0.0, 0.0, 0.0, 0.0, 0.0, 0.0, 0.5136986301369864, 0.0, 0.0, 0.0, 0.0, 0.0, 0.0, 0.0, 0.0, 0.0, 0.00228310502283105, 0.4840182648401826], [0.0, 0.0, 0.0, 0.0, 0.0, 0.0, 0.0, 0.0, 0.0, 0.0, 0.0, 0.0, 0.0, 0.0, 0.0, 0.0, 0.0, 0.004694835680751174, 0.9953051643192489], [0.0, 0.0, 0.0, 0.0, 0.0, 0.0, 0.0, 0.0, 0.0, 0.0, 0.0, 0.0, 0.0, 0.0, 0.0, 0.0, 0.0, 0.0, 1.0], [0.0, 0.0, 0.0, 0.0, 0.0, 0.0, 0.0, 0.0, 0.0, 0.0, 0.0, 0.0, 0.0, 0.0, 0.0, 0.0, 0.0, 1.0, 0.0], [0.0, 0.0, 0.0, 0.0, 0.0, 0.0, 0.0, 1.0, 0.0, 0.0, 0.0, 0.0, 0.0, 0.0, 0.0, 0.0, 0.0, 0.0, 0.0], [0.0636182902584493, 0.07687210072895957, 0.06494367130550033, 0.06328694499668655, 0.06196156394963552, 0.0, 0.07422133863485753, 0.0019880715705765406, 0.07190192180251823, 0.07654075546719682, 0.0, 0.07388999337309476, 0.0, 0.06295559973492379, 0.06759443339960239, 0.05964214711729622, 0.07620941020543406, 0.10437375745526839, 0.0], [0.06789250353606789, 0.08203677510608204, 0.06930693069306931, 0.06753889674681754, 0.06612446958981612, 0.0, 0.07920792079207921, 0.0021216407355021216, 0.07673267326732673, 0.08168316831683169, 0.0, 0.07885431400282886, 0.0, 0.0, 0.07213578500707214, 0.06364922206506365, 0.08132956152758133, 0.11138613861386139, 0.0], [0.0004608294930875576, 0.08525345622119816, 0.09032258064516129, 0.003686635944700461, 0.08571428571428572, 0.0, 0.1032258064516129, 0.0, 0.1, 0.0004608294930875576, 0.0, 0.10276497695852535, 0.0, 0.0, 0.09400921658986175, 0.08294930875576037, 0.10599078341013825, 0.14516129032258066, 0.0], [0.0005136106831022085, 0.09501797637390857, 0.10066769388803287, 0.004108885464817668, 0.09553158705701079, 0.0, 0.1145351823317925, 0.0, 0.11145351823317926, 0.0, 0.0, 0.1145351823317925, 0.0, 0.0, 0.10477657935285054, 0.09244992295839753, 0.004622496147919877, 0.1617873651771957, 0.0], [0.0016181229773462784, 0.2928802588996764, 0.3155339805825243, 0.011326860841423949, 0.0, 0.0, 0.011326860841423949, 0.0, 0.0, 0.0, 0.0, 0.35275080906148865, 0.0, 0.0, 0.0, 0.0016181229773462784, 0.009708737864077669, 0.003236245954692557, 0.0], [0.0045662100456621, 0.0, 0.8904109589041096, 0.0319634703196347, 0.0, 0.0, 0.0319634703196347, 0.0, 0.0, 0.0, 0.0, 0.0, 0.0, 0.0, 0.0, 0.0045662100456621, 0.0273972602739726, 0.0091324200913242, 0.0], [0.0, 0.0, 1.0, 0.0, 0.0, 0.0, 0.0, 0.0, 0.0, 0.0, 0.0, 0.0, 0.0, 0.0, 0.0, 0.0, 0.0, 0.0, 0.0], [0.041666666666666664, 0.0, 0.0, 0.2916666666666667, 0.0, 0.0, 0.2916666666666667, 0.0, 0.0, 0.0, 0.0, 0.0, 0.0, 0.0, 0.0, 0.041666666666666664, 0.25, 0.08333333333333333, 0.0], [0.0, 0.0, 0.0, 0.0, 0.0, 0.0, 1.0, 0.0, 0.0, 0.0, 0.0, 0.0, 0.0, 0.0, 0.0, 0.0, 0.0, 0.0, 0.0], [0.058823529411764705, 0.0, 0.0, 0.4117647058823529, 0.0, 0.0, 0.0, 0.0, 0.0, 0.0, 0.0, 0.0, 0.0, 0.0, 0.0, 0.058823529411764705, 0.35294117647058826, 0.11764705882352941, 0.0], [0.0, 0.0, 0.0, 0.0, 0.0, 0.0, 0.0, 0.0, 0.0, 0.0, 0.0, 0.0, 0.0, 0.0, 0.0, 0.0, 1.0, 0.0, 0.0], [0.09090909090909091, 0.0, 0.0, 0.6363636363636364, 0.0, 0.0, 0.0, 0.0, 0.0, 0.0, 0.0, 0.0, 0.0, 0.0, 0.0, 0.09090909090909091, 0.0, 0.18181818181818182, 0.0], [0.125, 0.0, 0.0, 0.875, 0.0, 0.0, 0.0, 0.0, 0.0, 0.0, 0.0, 0.0, 0.0, 0.0, 0.0, 0.0, 0.0, 0.0, 0.0], [1.0, 0.0, 0.0, 0.0, 0.0, 0.0, 0.0, 0.0, 0.0, 0.0, 0.0, 0.0, 0.0, 0.0, 0.0, 0.0, 0.0, 0.0, 0.0], [0.0, 0.0, 0.0, 1.0, 0.0, 0.0, 0.0, 0.0, 0.0, 0.0, 0.0, 0.0, 0.0, 0.0, 0.0, 0.0, 0.0, 0.0, 0.0], [0.0, 0.0, 0.0, 0.0, 0.0, 0.0, 0.0, 0.0, 0.0, 0.0, 0.0, 0.0, 0.0, 0.0, 0.0, 0.3333333333333333, 0.0, 0.6666666666666666, 0.0], [0.0, 0.0, 0.0, 0.0, 0.0, 0.0, 0.0, 0.0, 0.0, 0.0, 0.0, 0.0, 0.0, 0.0, 0.0, 1.0, 0.0, 0.0, 0.0], [0.0, 0.0, 0.0, 0.0, 0.0, 0.0, 0.0, 0.0, 0.0, 0.0, 0.0, 0.0, 0.0, 0.0, 0.0, 0.0, 0.0, 1.0, 0.0], [0.0, 0.45363408521303256, 0.0, 0.0, 0.0, 0.0, 0.0, 0.0, 0.0, 0.0, 0.0, 0.5463659147869674, 0.0, 0.0, 0.0, 0.0, 0.0, 0.0, 0.0], [0.0, 0.009216589861751152, 0.0, 0.0, 0.0, 0.0, 0.0, 0.0, 0.0, 0.0, 0.0, 0.9907834101382489, 0.0, 0.0, 0.0, 0.0, 0.0, 0.0, 0.0], [0.0, 0.0, 0.0, 0.0, 0.0, 0.0, 0.0, 0.0, 0.0, 0.0, 0.0, 1.0, 0.0, 0.0, 0.0, 0.0, 0.0, 0.0, 0.0], [0.0, 1.0, 0.0, 0.0, 0.0, 0.0, 0.0, 0.0, 0.0, 0.0, 0.0, 0.0, 0.0, 0.0, 0.0, 0.0, 0.0, 0.0, 0.0], [0.0, 0.9835164835164835, 0.0, 0.0, 0.0, 0.0, 0.0, 0.0, 0.0, 0.0, 0.0, 0.016483516483516484, 0.0, 0.0, 0.0, 0.0, 0.0, 0.0, 0.0], [0.0, 0.0, 0.0, 0.0, 0.0, 0.0, 0.0, 0.0, 0.0, 0.0, 0.0, 1.0, 0.0, 0.0, 0.0, 0.0, 0.0, 0.0, 0.0], [0.0, 0.9944444444444445, 0.0, 0.0, 0.0, 0.0, 0.0, 0.0, 0.0, 0.0, 0.0, 0.005555555555555556, 0.0, 0.0, 0.0, 0.0, 0.0, 0.0, 0.0], [0.0, 0.75, 0.0, 0.0, 0.0, 0.0, 0.0, 0.0, 0.0, 0.0, 0.0, 0.25, 0.0, 0.0, 0.0, 0.0, 0.0, 0.0, 0.0], [0.0, 0.0, 0.0, 0.0, 0.0, 0.0, 0.0, 0.0, 0.0, 0.0, 0.0, 1.0, 0.0, 0.0, 0.0, 0.0, 0.0, 0.0, 0.0], [0.0, 1.0, 0.0, 0.0, 0.0, 0.0, 0.0, 0.0, 0.0, 0.0, 0.0, 0.0, 0.0, 0.0, 0.0, 0.0, 0.0, 0.0, 0.0], [0.0, 1.0, 0.0, 0.0, 0.0, 0.0, 0.0, 0.0, 0.0, 0.0, 0.0, 0.0, 0.0, 0.0, 0.0, 0.0, 0.0, 0.0, 0.0], [0.0, 0.0030097817908201654, 0.0007524454477050414, 0.0007524454477050414, 0.1399548532731377, 0.0, 0.16252821670428894, 0.0, 0.163280662151994, 0.0, 0.0, 0.003762227238525207, 0.0, 0.0, 0.15349887133182843, 0.1346877351392024, 0.002257336343115124, 0.23551542513167795, 0.0], [0.0, 0.0, 0.0, 0.0, 0.0, 0.0, 0.981042654028436, 0.0, 0.0, 0.0, 0.0, 0.0, 0.0, 0.0, 0.0, 0.004739336492890996, 0.0, 0.014218009478672985, 0.0], [0.0, 0.0, 0.0, 0.0, 0.0, 0.0, 0.9904306220095693, 0.0, 0.0, 0.0, 0.0, 0.0, 0.0, 0.0, 0.0, 0.0, 0.0, 0.009569377990430622, 0.0], [0.0, 0.0, 0.0, 0.0, 0.0, 0.0, 1.0, 0.0, 0.0, 0.0, 0.0, 0.0, 0.0, 0.0, 0.0, 0.0, 0.0, 0.0, 0.0], [0.0, 0.0, 0.0, 0.0, 0.0, 0.0, 0.0, 0.0, 0.0, 0.0, 0.0, 0.0, 0.0, 0.0, 0.0, 0.0, 0.0, 1.0, 0.0], [0.0, 0.0, 0.0, 0.0, 0.0, 0.0, 0.0, 0.0, 0.0, 0.0, 0.0, 0.0, 0.0, 0.0, 0.0, 0.5, 0.0, 0.5, 0.0], [0.0, 0.0, 0.0, 0.0, 0.0, 0.0, 0.0, 0.0, 0.0, 0.0, 0.0, 0.0, 0.0, 0.0, 0.0, 1.0, 0.0, 0.0, 0.0], [0.0, 0.0, 0.0, 0.0, 0.0, 0.0, 0.0, 0.0, 0.0, 0.0, 0.0, 0.0, 0.0, 0.0, 0.0, 0.0, 0.0, 1.0, 0.0], [0.0, 0.0035778175313059034, 0.0008944543828264759, 0.0008944543828264759, 0.16636851520572452, 0.0, 0.008050089445438283, 0.0, 0.19409660107334525, 0.0, 0.0, 0.004472271914132379, 0.0, 0.0, 0.18246869409660108, 0.1592128801431127, 0.0026833631484794273, 0.2772808586762075, 0.0], [0.0, 0.0, 0.0, 0.0010787486515641855, 0.004314994606256742, 0.0, 0.009708737864077669, 0.0, 0.23408845738942827, 0.0, 0.0, 0.005393743257820928, 0.0, 0.0, 0.22006472491909385, 0.19201725997842503, 0.003236245954692557, 0.3300970873786408, 0.0], [0.0, 0.0, 0.0, 0.0, 0.0, 0.0, 0.014263074484944533, 0.0, 0.01901743264659271, 0.0, 0.0, 0.0, 0.0, 0.0, 0.2076069730586371, 0.27258320126782887, 0.004754358161648178, 0.48177496038034867, 0.0], [0.0, 0.0, 0.0, 0.0, 0.0, 0.0, 0.0196078431372549, 0.0, 0.026143790849673203, 0.0, 0.0, 0.0, 0.0, 0.0, 0.28540305010893247, 0.002178649237472767, 0.006535947712418301, 0.6601307189542484, 0.0], [0.0, 0.0, 0.0, 0.0, 0.0, 0.0, 0.0, 0.0, 0.04878048780487805, 0.0, 0.0, 0.0, 0.0, 0.0, 0.532520325203252, 0.0040650406504065045, 0.012195121951219513, 0.4024390243902439, 0.0], [0.0, 0.0, 0.0, 0.0, 0.0, 0.0, 0.0, 0.0, 0.0625, 0.0, 0.0, 0.0, 0.0, 0.0, 0.7443181818181818, 0.0, 0.017045454545454544, 0.17613636363636365, 0.0], [0.0, 0.0, 0.0, 0.0, 0.0, 0.0, 0.0, 0.0, 0.24444444444444444, 0.0, 0.0, 0.0, 0.0, 0.0, 0.0, 0.0, 0.06666666666666667, 0.6888888888888889, 0.0], [0.0, 0.0, 0.0, 0.0, 0.0, 0.0, 0.0, 0.0, 0.0, 0.0, 0.0, 0.0, 0.0, 0.0, 0.0, 0.0, 0.0, 1.0, 0.0], [0.0, 0.0, 0.0, 0.0, 0.0, 0.0, 0.0, 0.0, 0.7857142857142857, 0.0, 0.0, 0.0, 0.0, 0.0, 0.0, 0.0, 0.21428571428571427, 0.0, 0.0], [0.0, 0.0, 0.0, 0.0, 0.0, 0.0, 0.0, 0.0, 1.0, 0.0, 0.0, 0.0, 0.0, 0.0, 0.0, 0.0, 0.0, 0.0, 0.0], [0.0, 0.0, 0.0, 0.0, 0.0, 0.0, 0.0, 0.0, 0.0, 0.0, 0.0, 0.0, 0.0, 0.0, 0.0, 0.0, 1.0, 0.0, 0.0], [0.0, 0.0, 0.0, 0.0, 0.0, 0.0, 0.0, 0.0, 0.0, 0.0, 0.0, 0.0, 0.0, 0.0, 1.0, 0.0, 0.0, 0.0, 0.0], [0.0, 0.0, 0.0, 0.0, 0.0, 0.0, 0.0, 0.0, 0.014285714285714285, 0.0, 0.0, 0.0, 0.0, 0.0, 0.0, 0.014285714285714285, 0.0, 0.9714285714285714, 0.0], [0.0, 0.0, 0.0, 0.0, 0.0, 0.0, 0.0, 0.0, 0.0, 0.0, 0.0, 0.0, 0.0, 0.0, 0.0, 0.0, 0.0, 1.0, 0.0], [0.0, 0.0, 0.0, 0.0, 0.0, 0.0, 0.0, 0.0, 0.5, 0.0, 0.0, 0.0, 0.0, 0.0, 0.0, 0.5, 0.0, 0.0, 0.0], [0.0, 0.0, 0.0, 0.0, 0.0, 0.0, 0.0, 0.0, 0.0, 0.0, 0.0, 0.0, 0.0, 0.0, 0.0, 1.0, 0.0, 0.0, 0.0], [0.0, 0.0, 0.0, 0.0, 0.0, 0.0, 0.0, 0.0, 1.0, 0.0, 0.0, 0.0, 0.0, 0.0, 0.0, 0.0, 0.0, 0.0, 0.0], [0.0, 0.0, 0.0, 0.0, 0.0, 0.0, 0.04225352112676056, 0.0, 0.0, 0.0, 0.0, 0.0, 0.0, 0.0, 0.0, 0.0, 0.0, 0.9577464788732394, 0.0], [0.0, 0.0, 0.0, 0.0, 0.0, 0.0, 0.8181818181818182, 0.0, 0.0, 0.0, 0.0, 0.0, 0.0, 0.0, 0.0, 0.0, 0.0, 0.18181818181818182, 0.0], [0.0, 0.0, 0.0, 0.0, 0.0, 0.0, 0.0, 0.0, 0.0, 0.0, 0.0, 0.0, 0.0, 0.0, 0.0, 0.0, 0.0, 1.0, 0.0], [0.0, 0.0, 0.0, 0.0, 0.0, 0.0, 1.0, 0.0, 0.0, 0.0, 0.0, 0.0, 0.0, 0.0, 0.0, 0.0, 0.0, 0.0, 0.0], [0.0, 0.0, 0.0, 0.0, 0.0, 0.0, 0.0, 0.0, 0.0, 0.0, 0.0, 0.0, 0.0, 0.0, 0.0, 0.0, 0.0, 1.0, 0.0], [0.0, 0.0, 0.0, 0.0, 0.0, 0.0, 0.0, 0.0, 0.0, 0.0, 0.0, 0.0, 0.0, 0.0, 0.0, 0.9941860465116279, 0.0, 0.005813953488372093, 0.0], [0.0, 0.0, 0.0, 0.0, 0.0, 0.0, 0.0, 0.0, 0.0, 0.0, 0.0, 0.0, 0.0, 0.0, 0.0, 0.0, 0.0, 1.0, 0.0], [0.0, 0.0, 0.0, 0.0, 0.0, 0.0, 0.0, 0.0, 0.0, 0.0, 0.0, 0.0, 0.0, 0.0, 0.0, 1.0, 0.0, 0.0, 0.0], [0.0, 0.0, 0.0, 0.0033783783783783786, 0.013513513513513514, 0.0, 0.0, 0.0, 0.6925675675675675, 0.0, 0.0, 0.016891891891891893, 0.0, 0.0, 0.24662162162162163, 0.02027027027027027, 0.0, 0.006756756756756757, 0.0], [0.0, 0.0, 0.0, 0.011494252873563218, 0.0, 0.0, 0.0, 0.0, 0.0, 0.0, 0.0, 0.05747126436781609, 0.0, 0.0, 0.8390804597701149, 0.06896551724137931, 0.0, 0.022988505747126436, 0.0], [0.0, 0.0, 0.0, 0.07142857142857142, 0.0, 0.0, 0.0, 0.0, 0.0, 0.0, 0.0, 0.35714285714285715, 0.0, 0.0, 0.0, 0.42857142857142855, 0.0, 0.14285714285714285, 0.0], [0.0, 0.0, 0.0, 0.125, 0.0, 0.0, 0.0, 0.0, 0.0, 0.0, 0.0, 0.625, 0.0, 0.0, 0.0, 0.0, 0.0, 0.25, 0.0], [0.0, 0.0, 0.0, 0.3333333333333333, 0.0, 0.0, 0.0, 0.0, 0.0, 0.0, 0.0, 0.0, 0.0, 0.0, 0.0, 0.0, 0.0, 0.6666666666666666, 0.0], [0.0, 0.0, 0.0, 0.0, 0.0, 0.0, 0.0, 0.0, 0.0, 0.0, 0.0, 0.0, 0.0, 0.0, 0.0, 0.0, 0.0, 1.0, 0.0], [0.0, 0.0, 0.0, 1.0, 0.0, 0.0, 0.0, 0.0, 0.0, 0.0, 0.0, 0.0, 0.0, 0.0, 0.0, 0.0, 0.0, 0.0, 0.0], [0.0, 0.0, 0.0, 0.0, 0.0, 0.0, 0.0, 0.0, 0.0, 0.0, 0.0, 1.0, 0.0, 0.0, 0.0, 0.0, 0.0, 0.0, 0.0], [0.0, 0.0, 0.0, 0.0, 0.0, 0.0, 0.0, 0.0, 0.0, 0.0, 0.0, 0.0, 0.0, 0.0, 0.0, 1.0, 0.0, 0.0, 0.0], [0.0, 0.0, 0.0, 0.0, 0.0, 0.0, 0.0, 0.0, 0.0, 0.0, 0.0, 0.0, 0.0, 0.0, 1.0, 0.0, 0.0, 0.0, 0.0], [0.0, 0.0, 0.0, 0.0, 0.019138755980861243, 0.0, 0.0, 0.0, 0.9808612440191388, 0.0, 0.0, 0.0, 0.0, 0.0, 0.0, 0.0, 0.0, 0.0, 0.0], [0.0, 0.0, 0.0, 0.0, 1.0, 0.0, 0.0, 0.0, 0.0, 0.0, 0.0, 0.0, 0.0, 0.0, 0.0, 0.0, 0.0, 0.0, 0.0], [0.0, 0.0, 0.0, 0.0, 0.0, 0.0, 0.0, 0.0, 1.0, 0.0, 0.0, 0.0, 0.0, 0.0, 0.0, 0.0, 0.0, 0.0, 0.0], [0.0, 0.020942408376963352, 0.005235602094240838, 0.0, 0.9528795811518325, 0.0, 0.0, 0.0, 0.0, 0.0, 0.0, 0.0, 0.0, 0.0, 0.0, 0.0, 0.0, 0.020942408376963352, 0.0], [0.0, 0.4444444444444444, 0.1111111111111111, 0.0, 0.0, 0.0, 0.0, 0.0, 0.0, 0.0, 0.0, 0.0, 0.0, 0.0, 0.0, 0.0, 0.0, 0.4444444444444444, 0.0], [0.0, 0.0, 0.0, 0.0, 0.0, 0.0, 0.0, 0.0, 0.0, 0.0, 0.0, 0.0, 0.0, 0.0, 0.0, 0.0, 0.0, 1.0, 0.0], [0.0, 0.8, 0.2, 0.0, 0.0, 0.0, 0.0, 0.0, 0.0, 0.0, 0.0, 0.0, 0.0, 0.0, 0.0, 0.0, 0.0, 0.0, 0.0], [0.0, 0.0, 1.0, 0.0, 0.0, 0.0, 0.0, 0.0, 0.0, 0.0, 0.0, 0.0, 0.0, 0.0, 0.0, 0.0, 0.0, 0.0, 0.0], [0.0, 1.0, 0.0, 0.0, 0.0, 0.0, 0.0, 0.0, 0.0, 0.0, 0.0, 0.0, 0.0, 0.0, 0.0, 0.0, 0.0, 0.0, 0.0], [0.0, 0.0, 0.0, 0.0, 1.0, 0.0, 0.0, 0.0, 0.0, 0.0, 0.0, 0.0, 0.0, 0.0, 0.0, 0.0, 0.0, 0.0, 0.0], [0.0, 0.0, 0.0, 0.0, 0.0, 0.0, 0.004484304932735426, 0.0, 0.0, 0.004484304932735426, 0.0, 0.0, 0.0, 0.0, 0.0, 0.0, 0.9910313901345291, 0.0, 0.0], [0.0, 0.0, 0.0, 0.0, 0.0, 0.0, 0.0, 0.0, 0.0, 0.0045045045045045045, 0.0, 0.0, 0.0, 0.0, 0.0, 0.0, 0.9954954954954955, 0.0, 0.0], [0.0, 0.0, 0.0, 0.0, 0.0, 0.0, 0.0, 0.0, 0.0, 0.0, 0.0, 0.0, 0.0, 0.0, 0.0, 0.0, 1.0, 0.0, 0.0], [0.0, 0.0, 0.0, 0.0, 0.0, 0.0, 0.0, 0.0, 0.0, 1.0, 0.0, 0.0, 0.0, 0.0, 0.0, 0.0, 0.0, 0.0, 0.0], [0.0, 0.0, 0.0, 0.0, 0.0, 0.0, 1.0, 0.0, 0.0, 0.0, 0.0, 0.0, 0.0, 0.0, 0.0, 0.0, 0.0, 0.0, 0.0], [0.29027355623100304, 0.07142857142857142, 0.0, 0.27811550151975684, 0.001519756838905775, 0.0, 0.0, 0.00911854103343465, 0.0, 0.3495440729483283, 0.0, 0.0, 0.0, 0.0, 0.0, 0.0, 0.0, 0.0, 0.0], [1.0, 0.0, 0.0, 0.0, 0.0, 0.0, 0.0, 0.0, 0.0, 0.0, 0.0, 0.0, 0.0, 0.0, 0.0, 0.0, 0.0, 0.0, 0.0], [0.0, 0.1006423982869379, 0.0, 0.39186295503211993, 0.0021413276231263384, 0.0, 0.0, 0.01284796573875803, 0.0, 0.4925053533190578, 0.0, 0.0, 0.0, 0.0, 0.0, 0.0, 0.0, 0.0, 0.0], [0.0, 0.18067226890756302, 0.0, 0.49159663865546216, 0.004201680672268907, 0.0, 0.0, 0.0, 0.0, 0.3235294117647059, 0.0, 0.0, 0.0, 0.0, 0.0, 0.0, 0.0, 0.0, 0.0], [0.0, 0.2670807453416149, 0.0, 0.7267080745341615, 0.006211180124223602, 0.0, 0.0, 0.0, 0.0, 0.0, 0.0, 0.0, 0.0, 0.0, 0.0, 0.0, 0.0, 0.0, 0.0], [0.0, 1.0, 0.0, 0.0, 0.0, 0.0, 0.0, 0.0, 0.0, 0.0, 0.0, 0.0, 0.0, 0.0, 0.0, 0.0, 0.0, 0.0, 0.0], [0.0, 0.0, 0.0, 0.9915254237288136, 0.00847457627118644, 0.0, 0.0, 0.0, 0.0, 0.0, 0.0, 0.0, 0.0, 0.0, 0.0, 0.0, 0.0, 0.0, 0.0], [0.0, 0.0, 0.0, 1.0, 0.0, 0.0, 0.0, 0.0, 0.0, 0.0, 0.0, 0.0, 0.0, 0.0, 0.0, 0.0, 0.0, 0.0, 0.0], [0.0, 0.0, 0.0, 0.0, 1.0, 0.0, 0.0, 0.0, 0.0, 0.0, 0.0, 0.0, 0.0, 0.0, 0.0, 0.0, 0.0, 0.0, 0.0], [0.0, 0.0, 0.0, 0.0, 0.0, 0.0, 0.0, 0.0, 0.0, 1.0, 0.0, 0.0, 0.0, 0.0, 0.0, 0.0, 0.0, 0.0, 0.0], [0.0, 0.017467248908296942, 0.0, 0.28820960698689957, 0.0, 0.0, 0.0, 0.026200873362445413, 0.0, 0.6681222707423581, 0.0, 0.0, 0.0, 0.0, 0.0, 0.0, 0.0, 0.0, 0.0], [0.0, 0.024539877300613498, 0.0, 0.0, 0.0, 0.0, 0.0, 0.03680981595092025, 0.0, 0.9386503067484663, 0.0, 0.0, 0.0, 0.0, 0.0, 0.0, 0.0, 0.0, 0.0], [0.0, 0.0, 0.0, 0.0, 0.0, 0.0, 0.0, 0.03773584905660377, 0.0, 0.9622641509433962, 0.0, 0.0, 0.0, 0.0, 0.0, 0.0, 0.0, 0.0, 0.0], [0.0, 0.0, 0.0, 0.0, 0.0, 0.0, 0.0, 0.019230769230769232, 0.0, 0.9807692307692307, 0.0, 0.0, 0.0, 0.0, 0.0, 0.0, 0.0, 0.0, 0.0], [0.0, 0.0, 0.0, 0.0, 0.0, 0.0, 0.0, 1.0, 0.0, 0.0, 0.0, 0.0, 0.0, 0.0, 0.0, 0.0, 0.0, 0.0, 0.0], [0.0, 0.0, 0.0, 0.0, 0.0, 0.0, 0.0, 0.0, 0.0, 1.0, 0.0, 0.0, 0.0, 0.0, 0.0, 0.0, 0.0, 0.0, 0.0], [0.0, 0.0, 0.0, 0.0, 0.0, 0.0, 0.0, 1.0, 0.0, 0.0, 0.0, 0.0, 0.0, 0.0, 0.0, 0.0, 0.0, 0.0, 0.0], [0.0, 1.0, 0.0, 0.0, 0.0, 0.0, 0.0, 0.0, 0.0, 0.0, 0.0, 0.0, 0.0, 0.0, 0.0, 0.0, 0.0, 0.0, 0.0], [0.0, 0.0, 0.0, 1.0, 0.0, 0.0, 0.0, 0.0, 0.0, 0.0, 0.0, 0.0, 0.0, 0.0, 0.0, 0.0, 0.0, 0.0, 0.0], [0.0, 0.0, 0.0, 0.0, 0.0, 0.0, 0.0, 0.0, 0.0, 0.0, 0.0, 0.0, 0.0, 1.0, 0.0, 0.0, 0.0, 0.0, 0.0], [0.0, 0.0, 0.0, 0.0, 0.0048543689320388345, 0.3074433656957929, 0.0, 0.0, 0.0, 0.0, 0.3333333333333333, 0.0, 0.35436893203883496, 0.0, 0.0, 0.0, 0.0, 0.0, 0.0], [0.0, 0.0, 0.0, 0.0, 0.007281553398058253, 0.46116504854368934, 0.0, 0.0, 0.0, 0.0, 0.0, 0.0, 0.5315533980582524, 0.0, 0.0, 0.0, 0.0, 0.0, 0.0], [0.0, 0.0, 0.0, 0.0, 0.0, 0.0, 0.0, 0.0, 0.0, 0.0, 0.0, 0.0, 1.0, 0.0, 0.0, 0.0, 0.0, 0.0, 0.0], [0.0, 0.0, 0.0, 0.0, 0.015544041450777202, 0.9844559585492227, 0.0, 0.0, 0.0, 0.0, 0.0, 0.0, 0.0, 0.0, 0.0, 0.0, 0.0, 0.0, 0.0], [0.0, 0.0, 0.0, 0.0, 1.0, 0.0, 0.0, 0.0, 0.0, 0.0, 0.0, 0.0, 0.0, 0.0, 0.0, 0.0, 0.0, 0.0, 0.0], [0.0, 0.0, 0.0, 0.0, 0.0, 1.0, 0.0, 0.0, 0.0, 0.0, 0.0, 0.0, 0.0, 0.0, 0.0, 0.0, 0.0, 0.0, 0.0], [0.0, 0.0, 0.0, 0.0, 0.0, 0.0, 0.0, 0.0, 0.0, 0.0, 1.0, 0.0, 0.0, 0.0, 0.0, 0.0, 0.0, 0.0, 0.0]]}, {"feature": [72, 63, 77, 31, 67, 13, 63, 40, -2, 38, 66, -2, -2, -2, 41, -2, 64, -2, 16, 69, 12, -2, -2, 35, -2, 8, -2, -2, 40, -2, -2, 34, 16, -2, -2, 16, -2, -2, 68, 71, -2, -2, -2, 66, -2, -2, 46, -2, 54, 64, -2, -2, 66, -2, -2, 24, 79, -2, -2, 79, 74, -2, 34, -2, -2, 62, -2, 72, -2, -2, -2], "threshold": [0.3704683780670166, 0.6472006142139435, 2.5348459482192993, 0.8688451051712036, 0.5208023190498352, 0.8054459393024445, 0.4180065393447876, 0.45969946682453156, -2.0, -0.36213573813438416, 0.535601407289505, -2.0, -2.0, -2.0, -0.14936203509569168, -2.0, 0.39729273319244385, -2.0, 0.57533398270607, 0.2520204335451126, 0.5345885753631592, -2.0, -2.0, -0.27594807744026184, -2.0, -0.1966308206319809, -2.0, -2.0, 0.5083737522363663, -2.0, -2.0, 0.8043791055679321, 0.5177340805530548, -2.0, -2.0, 0.5234840214252472, -2.0, -2.0, 0.7087563872337341, 0.32164546847343445, -2.0, -2.0, -2.0, 0.21711990423500538, -2.0, -2.0, 0.48169848322868347, -2.0, -0.21484893560409546, 0.5897663533687592, -2.0, -2.0, 0.6138852834701538, -2.0, -2.0, -0.19259299337863922, 1.8115362524986267, -2.0, -2.0, 0.9949226379394531, 1.4861536622047424, -2.0, 0.707483559846878, -2.0, -2.0, -0.33004094660282135, -2.0, 0.16160722821950912, -2.0, -2.0, -2.0], "children_left": [1, 2, 3, 4, 5, 6, 7, 8, -1, 10, 11, -1, -1, -1, 15, -1, 17, -1, 19, 20, 21, -1, -1, 24, -1, 26, -1, -1, 29, -1, -1, 32, 33, -1, -1, 36, -1, -1, 39, 40, -1, -1, -1, 44, -1, -1, 47, -1, 49, 50, -1, -1, 53, -1, -1, 56, 57, -1, -1, 60, 61, -1, 63, -1, -1, 66, -1, 68, -1, -1, -1], "children_right": [70, 55, 46, 43, 38, 31, 14, 9, -1, 13, 12, -1, -1, -1, 16, -1, 18, -1, 28, 23, 22, -1, -1, 25, -1, 27, -1, -1, 30, -1, -1, 35, 34, -1, -1, 37, -1, -1, 42, 41, -1, -1, -1, 45, -1, -1, 48, -1, 52, 51, -1, -1, 54, -1, -1, 59, 58, -1, -1, 65, 62, -1, 64, -1, -1, 67, -1, 69, -1, -1, -1], "value": [[0.05351006381934217, 0.05694648993618066, 0.05179185076092293, 0.054000981836033385, 0.0508100147275405, 0.0468826705940108, 0.0429553264604811, 0.046637211585665195, 0.05179185076092293, 0.05130093274423171, 0.05228276877761414, 0.04639175257731959, 0.054982817869415807, 0.05130093274423171, 0.054491899852724596, 0.05768286696121748, 0.048600883652430045, 0.07633775159548356, 0.05130093274423171], [0.05659397715472482, 0.060228452751817235, 0.054776739356178605, 0.05711318795430945, 0.053738317757009345, 0.049584631360332296, 0.04543094496365525, 0.04932502596053998, 0.054776739356178605, 0.05425752855659398, 0.05529595015576324, 0.04906542056074766, 0.058151609553478714, 0.05425752855659398, 0.0, 0.06100726895119418, 0.0514018691588785, 0.08073727933541018, 0.05425752855659398], [0.0, 0.0, 0.08994032395566923, 0.0, 0.0, 0.0, 0.07459505541346974, 0.08098891730605286, 0.08994032395566923, 0.08908780903665814, 0.0, 0.08013640238704177, 0.0, 0.08908780903665814, 0.0, 0.10017050298380221, 0.08439897698209718, 0.13256606990622335, 0.08908780903665814], [0.0, 0.0, 0.11140443505807814, 0.0, 0.0, 0.0, 0.09134107708553327, 0.1003167898627244, 0.11140443505807814, 0.11034846884899684, 0.0, 0.09926082365364308, 0.0, 0.0, 0.0, 0.0, 0.10454065469904963, 0.1610348468848997, 0.11034846884899684], [0.0, 0.0, 